<?xml version="1.0"?>
<MethodSetup Method="BDT::BDTG">
  <GeneralInfo>
    <Info name="TMVA Release" value="4.2.1 [262657]"/>
    <Info name="ROOT Release" value="6.18/02 [397826]"/>
    <Info name="Creator" value="tsculac"/>
    <Info name="Date" value="Thu Oct 24 15:27:37 2019"/>
    <Info name="Host" value="Linux buildvm-13.phx2.fedoraproject.org 5.0.6-200.fc29.x86_64 #1 SMP Wed Apr 3 15:09:51 UTC 2019 x86_64 x86_64 x86_64 GNU/Linux"/>
    <Info name="Dir" value="/home/tsculac/Vjezbe/Vjezbe_12"/>
    <Info name="Training events" value="2000"/>
    <Info name="TrainingTime" value="1.19124794e+00"/>
    <Info name="AnalysisType" value="Classification"/>
  </GeneralInfo>
  <Options>
    <Option name="V" modified="Yes">False</Option>
    <Option name="VerbosityLevel" modified="No">Default</Option>
    <Option name="VarTransform" modified="No">None</Option>
    <Option name="H" modified="Yes">False</Option>
    <Option name="CreateMVAPdfs" modified="No">False</Option>
    <Option name="IgnoreNegWeightsInTraining" modified="No">False</Option>
    <Option name="NTrees" modified="Yes">1000</Option>
    <Option name="MaxDepth" modified="Yes">2</Option>
    <Option name="MinNodeSize" modified="Yes">2.5%</Option>
    <Option name="nCuts" modified="Yes">20</Option>
    <Option name="BoostType" modified="Yes">Grad</Option>
    <Option name="AdaBoostR2Loss" modified="No">quadratic</Option>
    <Option name="UseBaggedBoost" modified="Yes">True</Option>
    <Option name="Shrinkage" modified="Yes">1.000000e-01</Option>
    <Option name="AdaBoostBeta" modified="No">5.000000e-01</Option>
    <Option name="UseRandomisedTrees" modified="No">False</Option>
    <Option name="UseNvars" modified="No">2</Option>
    <Option name="UsePoissonNvars" modified="No">True</Option>
    <Option name="BaggedSampleFraction" modified="Yes">5.000000e-01</Option>
    <Option name="UseYesNoLeaf" modified="No">True</Option>
    <Option name="NegWeightTreatment" modified="No">pray</Option>
    <Option name="Css" modified="No">1.000000e+00</Option>
    <Option name="Cts_sb" modified="No">1.000000e+00</Option>
    <Option name="Ctb_ss" modified="No">1.000000e+00</Option>
    <Option name="Cbb" modified="No">1.000000e+00</Option>
    <Option name="NodePurityLimit" modified="No">5.000000e-01</Option>
    <Option name="SeparationType" modified="No">giniindex</Option>
    <Option name="RegressionLossFunctionBDTG" modified="No">huber</Option>
    <Option name="HuberQuantile" modified="No">7.000000e-01</Option>
    <Option name="DoBoostMonitor" modified="No">False</Option>
    <Option name="UseFisherCuts" modified="No">False</Option>
    <Option name="MinLinCorrForFisher" modified="No">8.000000e-01</Option>
    <Option name="UseExclusiveVars" modified="No">False</Option>
    <Option name="DoPreselection" modified="No">False</Option>
    <Option name="SigToBkgFraction" modified="No">1.000000e+00</Option>
    <Option name="PruneMethod" modified="No">nopruning</Option>
    <Option name="PruneStrength" modified="No">0.000000e+00</Option>
    <Option name="PruningValFraction" modified="No">5.000000e-01</Option>
    <Option name="SkipNormalization" modified="No">False</Option>
    <Option name="nEventsMin" modified="No">0</Option>
    <Option name="UseBaggedGrad" modified="No">False</Option>
    <Option name="GradBaggingFraction" modified="No">5.000000e-01</Option>
    <Option name="UseNTrainEvents" modified="No">0</Option>
    <Option name="NNodesMax" modified="No">0</Option>
  </Options>
  <Variables NVar="4">
    <Variable VarIndex="0" Expression="ele_pt" Label="ele_pt" Title="Variable 1" Unit="" Internal="ele_pt" Type="F" Min="5.00599241e+00" Max="3.06198883e+02"/>
    <Variable VarIndex="1" Expression="scl_eta" Label="scl_eta" Title="Variable 2" Unit="" Internal="scl_eta" Type="F" Min="-2.55902076e+00" Max="2.58148694e+00"/>
    <Variable VarIndex="2" Expression="ele_fbrem" Label="ele_fbrem" Title="Variable 3" Unit="" Internal="ele_fbrem" Type="F" Min="-1.00000000e+00" Max="9.91997242e-01"/>
    <Variable VarIndex="3" Expression="ele_eelepout" Label="ele_eelepout" Title="Variable 4" Unit="" Internal="ele_eelepout" Type="F" Min="2.26789676e-02" Max="2.00000000e+01"/>
  </Variables>
  <Spectators NSpec="0"/>
  <Classes NClass="2">
    <Class Name="Signal" Index="0"/>
    <Class Name="Background" Index="1"/>
  </Classes>
  <Transformations NTransformations="0"/>
  <MVAPdfs/>
  <Weights NTrees="1000" AnalysisType="1">
    <BinaryTree type="DecisionTree" boostWeight="1.0000000000000000e+00" itree="0">
      <Node pos="s" depth="0" NCoef="0" IVar="0" Cut="1.9379344940185547e+01" cType="1" res="-3.4046690911054611e-02" rms="4.9883946776390076e-01" purity="4.6595332026481628e-01" nType="0">
        <Node pos="l" depth="1" NCoef="0" IVar="0" Cut="1.1069031715393066e+01" cType="1" res="-3.5968378186225891e-01" rms="3.4731480479240417e-01" purity="1.4031620323657990e-01" nType="0">
          <Node pos="l" depth="2" NCoef="0" IVar="-1" Cut="0.0000000000000000e+00" cType="1" res="-8.8505744934082031e-02" rms="2.3274087905883789e-01" purity="5.7471264153718948e-02" nType="-99"/>
          <Node pos="r" depth="2" NCoef="0" IVar="-1" Cut="0.0000000000000000e+00" cType="1" res="-3.5443037748336792e-02" rms="4.6754121780395508e-01" purity="3.2278481125831604e-01" nType="-99"/>
        </Node>
        <Node pos="r" depth="1" NCoef="0" IVar="3" Cut="1.0205404758453369e+00" cType="1" res="2.8160920739173889e-01" rms="4.1315403580665588e-01" purity="7.8160917758941650e-01" nType="0">
          <Node pos="l" depth="2" NCoef="0" IVar="-1" Cut="0.0000000000000000e+00" cType="1" res="7.5862067751586437e-03" rms="4.9855914711952209e-01" purity="5.3793102502822876e-01" nType="-99"/>
          <Node pos="r" depth="2" NCoef="0" IVar="-1" Cut="0.0000000000000000e+00" cType="1" res="7.5066313147544861e-02" rms="3.3034256100654602e-01" purity="8.7533158063888550e-01" nType="-99"/>
        </Node>
      </Node>
    </BinaryTree>
    <BinaryTree type="DecisionTree" boostWeight="1.0000000000000000e+00" itree="1">
      <Node pos="s" depth="0" NCoef="0" IVar="0" Cut="3.0077123641967773e+01" cType="1" res="-1.3943009078502655e-02" rms="4.7808086872100830e-01" purity="4.8367348313331604e-01" nType="0">
        <Node pos="l" depth="1" NCoef="0" IVar="0" Cut="8.5807495117187500e+00" cType="1" res="-2.1201775968074799e-01" rms="4.3052178621292114e-01" purity="2.6782885193824768e-01" nType="0">
          <Node pos="l" depth="2" NCoef="0" IVar="-1" Cut="0.0000000000000000e+00" cType="1" res="-8.2947872579097748e-02" rms="2.0588220655918121e-01" purity="4.4354837387800217e-02" nType="-99"/>
          <Node pos="r" depth="2" NCoef="0" IVar="-1" Cut="0.0000000000000000e+00" cType="1" res="-1.6630593687295914e-02" rms="4.8524716496467590e-01" purity="4.1253262758255005e-01" nType="-99"/>
        </Node>
        <Node pos="r" depth="1" NCoef="0" IVar="2" Cut="3.2341815531253815e-02" cType="1" res="3.4418067336082458e-01" rms="3.2787549495697021e-01" purity="8.7392550706863403e-01" nType="0">
          <Node pos="l" depth="2" NCoef="0" IVar="-1" Cut="0.0000000000000000e+00" cType="1" res="7.0178636815398932e-04" rms="4.9907678365707397e-01" purity="5.1851850748062134e-01" nType="-99"/>
          <Node pos="r" depth="2" NCoef="0" IVar="-1" Cut="0.0000000000000000e+00" cType="1" res="7.4889674782752991e-02" rms="2.9169026017189026e-01" purity="9.0372669696807861e-01" nType="-99"/>
        </Node>
      </Node>
    </BinaryTree>
    <BinaryTree type="DecisionTree" boostWeight="1.0000000000000000e+00" itree="2">
      <Node pos="s" depth="0" NCoef="0" IVar="0" Cut="2.0093610763549805e+01" cType="1" res="3.6901794373989105e-02" rms="4.5357513427734375e-01" purity="5.3656125068664551e-01" nType="0">
        <Node pos="l" depth="1" NCoef="0" IVar="0" Cut="9.9969978332519531e+00" cType="1" res="-2.6798608899116516e-01" rms="3.6539322137832642e-01" purity="1.7161017656326294e-01" nType="0">
          <Node pos="l" depth="2" NCoef="0" IVar="-1" Cut="0.0000000000000000e+00" cType="1" res="-7.6093055307865143e-02" rms="2.1697443723678589e-01" purity="5.0167225301265717e-02" nType="-99"/>
          <Node pos="r" depth="2" NCoef="0" IVar="-1" Cut="0.0000000000000000e+00" cType="1" res="-1.8164208158850670e-02" rms="4.8285546898841858e-01" purity="3.8150289654731750e-01" nType="-99"/>
        </Node>
        <Node pos="r" depth="1" NCoef="0" IVar="0" Cut="2.7019592285156250e+01" cType="1" res="3.0339637398719788e-01" rms="3.4144419431686401e-01" purity="8.5555553436279297e-01" nType="0">
          <Node pos="l" depth="2" NCoef="0" IVar="-1" Cut="0.0000000000000000e+00" cType="1" res="1.4676440507173538e-02" rms="4.8744577169418335e-01" purity="5.9090906381607056e-01" nType="-99"/>
          <Node pos="r" depth="2" NCoef="0" IVar="-1" Cut="0.0000000000000000e+00" cType="1" res="7.0778325200080872e-02" rms="2.8407612442970276e-01" purity="9.0707963705062866e-01" nType="-99"/>
        </Node>
      </Node>
    </BinaryTree>
    <BinaryTree type="DecisionTree" boostWeight="1.0000000000000000e+00" itree="3">
      <Node pos="s" depth="0" NCoef="0" IVar="0" Cut="1.8798250198364258e+01" cType="1" res="2.1690532565116882e-02" rms="4.3930909037590027e-01" purity="5.2959185838699341e-01" nType="0">
        <Node pos="l" depth="1" NCoef="0" IVar="2" Cut="2.3314115405082703e-01" cType="1" res="-2.6565584540367126e-01" rms="3.4149393439292908e-01" purity="1.4878049492835999e-01" nType="0">
          <Node pos="l" depth="2" NCoef="0" IVar="-1" Cut="0.0000000000000000e+00" cType="1" res="-7.6244592666625977e-02" rms="1.9653670489788055e-01" purity="4.2372882366180420e-02" nType="-99"/>
          <Node pos="r" depth="2" NCoef="0" IVar="-1" Cut="0.0000000000000000e+00" cType="1" res="-2.6613891124725342e-02" rms="4.3583726882934570e-01" purity="2.9310345649719238e-01" nType="-99"/>
        </Node>
        <Node pos="r" depth="1" NCoef="0" IVar="2" Cut="2.3027689754962921e-01" cType="1" res="2.2837828099727631e-01" rms="3.8186073303222656e-01" purity="8.0350875854492188e-01" nType="0">
          <Node pos="l" depth="2" NCoef="0" IVar="-1" Cut="0.0000000000000000e+00" cType="1" res="1.1745051480829716e-02" rms="4.6617934107780457e-01" purity="6.2234044075012207e-01" nType="-99"/>
          <Node pos="r" depth="2" NCoef="0" IVar="-1" Cut="0.0000000000000000e+00" cType="1" res="6.4532518386840820e-02" rms="2.9857429862022400e-01" purity="8.9267015457153320e-01" nType="-99"/>
        </Node>
      </Node>
    </BinaryTree>
    <BinaryTree type="DecisionTree" boostWeight="1.0000000000000000e+00" itree="4">
      <Node pos="s" depth="0" NCoef="0" IVar="0" Cut="1.5649462699890137e+01" cType="1" res="-8.0132717266678810e-03" rms="4.2386591434478760e-01" purity="4.9168398976325989e-01" nType="0">
        <Node pos="l" depth="1" NCoef="0" IVar="0" Cut="1.2059372901916504e+01" cType="1" res="-2.8683617711067200e-01" rms="2.7184492349624634e-01" purity="8.6387433111667633e-02" nType="0">
          <Node pos="l" depth="2" NCoef="0" IVar="-1" Cut="0.0000000000000000e+00" cType="1" res="-6.6839724779129028e-02" rms="2.2776752710342407e-01" purity="5.6047197431325912e-02" nType="-99"/>
          <Node pos="r" depth="2" NCoef="0" IVar="-1" Cut="0.0000000000000000e+00" cType="1" res="-2.2973019629716873e-02" rms="4.6204566955566406e-01" purity="3.2558140158653259e-01" nType="-99"/>
        </Node>
        <Node pos="r" depth="1" NCoef="0" IVar="2" Cut="2.3314115405082703e-01" cType="1" res="1.7562524974346161e-01" rms="4.0545538067817688e-01" purity="7.5862067937850952e-01" nType="0">
          <Node pos="l" depth="2" NCoef="0" IVar="-1" Cut="0.0000000000000000e+00" cType="1" res="-2.3790993727743626e-03" rms="4.8251804709434509e-01" purity="5.3370785713195801e-01" nType="-99"/>
          <Node pos="r" depth="2" NCoef="0" IVar="-1" Cut="0.0000000000000000e+00" cType="1" res="5.4599910974502563e-02" rms="3.3420962095260620e-01" purity="8.5820895433425903e-01" nType="-99"/>
        </Node>
      </Node>
    </BinaryTree>
    <BinaryTree type="DecisionTree" boostWeight="1.0000000000000000e+00" itree="5">
      <Node pos="s" depth="0" NCoef="0" IVar="0" Cut="1.8771015167236328e+01" cType="1" res="-3.4620745573192835e-03" rms="4.1313484311103821e-01" purity="4.9152541160583496e-01" nType="0">
        <Node pos="l" depth="1" NCoef="0" IVar="2" Cut="2.2900867462158203e-01" cType="1" res="-2.0341305434703827e-01" rms="3.4799081087112427e-01" purity="1.6033755242824554e-01" nType="0">
          <Node pos="l" depth="2" NCoef="0" IVar="-1" Cut="0.0000000000000000e+00" cType="1" res="-6.3332907855510712e-02" rms="2.3796641826629639e-01" purity="6.2256809324026108e-02" nType="-99"/>
          <Node pos="r" depth="2" NCoef="0" IVar="-1" Cut="0.0000000000000000e+00" cType="1" res="-2.3011904209852219e-02" rms="4.2482352256774902e-01" purity="2.7649769186973572e-01" nType="-99"/>
        </Node>
        <Node pos="r" depth="1" NCoef="0" IVar="2" Cut="4.1345216333866119e-02" cType="1" res="1.7570005357265472e-01" rms="3.8364750146865845e-01" purity="7.8827977180480957e-01" nType="0">
          <Node pos="l" depth="2" NCoef="0" IVar="-1" Cut="0.0000000000000000e+00" cType="1" res="-3.4992329776287079e-02" rms="4.6706217527389526e-01" purity="3.6065572500228882e-01" nType="-99"/>
          <Node pos="r" depth="2" NCoef="0" IVar="-1" Cut="0.0000000000000000e+00" cType="1" res="4.7497753053903580e-02" rms="3.4636369347572327e-01" purity="8.4401708841323853e-01" nType="-99"/>
        </Node>
      </Node>
    </BinaryTree>
    <BinaryTree type="DecisionTree" boostWeight="1.0000000000000000e+00" itree="6">
      <Node pos="s" depth="0" NCoef="0" IVar="0" Cut="1.8771352767944336e+01" cType="1" res="-2.9427432455122471e-03" rms="4.0495488047599792e-01" purity="4.9848023056983948e-01" nType="0">
        <Node pos="l" depth="1" NCoef="0" IVar="0" Cut="1.0903610229492188e+01" cType="1" res="-1.7909903824329376e-01" rms="3.4849491715431213e-01" purity="1.6629712283611298e-01" nType="0">
          <Node pos="l" depth="2" NCoef="0" IVar="-1" Cut="0.0000000000000000e+00" cType="1" res="-5.8713246136903763e-02" rms="2.3428288102149963e-01" purity="6.0897435992956161e-02" nType="-99"/>
          <Node pos="r" depth="2" NCoef="0" IVar="-1" Cut="0.0000000000000000e+00" cType="1" res="-3.4290300682187080e-03" rms="4.8237350583076477e-01" purity="4.0287768840789795e-01" nType="-99"/>
        </Node>
        <Node pos="r" depth="1" NCoef="0" IVar="3" Cut="1.0205404758453369e+00" cType="1" res="1.4527831971645355e-01" rms="3.8949018716812134e-01" purity="7.7798509597778320e-01" nType="0">
          <Node pos="l" depth="2" NCoef="0" IVar="-1" Cut="0.0000000000000000e+00" cType="1" res="-8.2964701578021049e-03" rms="4.7921183705329895e-01" purity="5.3571426868438721e-01" nType="-99"/>
          <Node pos="r" depth="2" NCoef="0" IVar="-1" Cut="0.0000000000000000e+00" cType="1" res="4.6837501227855682e-02" rms="3.2823148369789124e-01" purity="8.6363637447357178e-01" nType="-99"/>
        </Node>
      </Node>
    </BinaryTree>
    <BinaryTree type="DecisionTree" boostWeight="1.0000000000000000e+00" itree="7">
      <Node pos="s" depth="0" NCoef="0" IVar="0" Cut="1.8233188629150391e+01" cType="1" res="-6.3242679461836815e-03" rms="3.9012148976325989e-01" purity="4.8808291554450989e-01" nType="0">
        <Node pos="l" depth="1" NCoef="0" IVar="3" Cut="9.7397994995117188e-01" cType="1" res="-1.8931008875370026e-01" rms="3.1768926978111267e-01" purity="1.3092550635337830e-01" nType="0">
          <Node pos="l" depth="2" NCoef="0" IVar="-1" Cut="0.0000000000000000e+00" cType="1" res="-5.7920217514038086e-02" rms="2.3714542388916016e-01" purity="6.2962964177131653e-02" nType="-99"/>
          <Node pos="r" depth="2" NCoef="0" IVar="-1" Cut="0.0000000000000000e+00" cType="1" res="-2.3947313427925110e-02" rms="3.9896589517593384e-01" purity="2.3699422180652618e-01" nType="-99"/>
        </Node>
        <Node pos="r" depth="1" NCoef="0" IVar="2" Cut="1.3564021885395050e-01" cType="1" res="1.4896829426288605e-01" rms="3.7838071584701538e-01" purity="7.9118776321411133e-01" nType="0">
          <Node pos="l" depth="2" NCoef="0" IVar="-1" Cut="0.0000000000000000e+00" cType="1" res="-2.8613312169909477e-03" rms="4.7066915035247803e-01" purity="5.6153845787048340e-01" nType="-99"/>
          <Node pos="r" depth="2" NCoef="0" IVar="-1" Cut="0.0000000000000000e+00" cType="1" res="4.6071525663137436e-02" rms="3.2480192184448242e-01" purity="8.6734694242477417e-01" nType="-99"/>
        </Node>
      </Node>
    </BinaryTree>
    <BinaryTree type="DecisionTree" boostWeight="1.0000000000000000e+00" itree="8">
      <Node pos="s" depth="0" NCoef="0" IVar="0" Cut="3.3691028594970703e+01" cType="1" res="7.6171532273292542e-03" rms="3.7648704648017883e-01" purity="5.1324826478958130e-01" nType="0">
        <Node pos="l" depth="1" NCoef="0" IVar="0" Cut="2.4110948562622070e+01" cType="1" res="-1.0879787057638168e-01" rms="3.7745675444602966e-01" purity="3.0280649662017822e-01" nType="0">
          <Node pos="l" depth="2" NCoef="0" IVar="-1" Cut="0.0000000000000000e+00" cType="1" res="-3.9100185036659241e-02" rms="3.4968221187591553e-01" purity="1.8215613067150116e-01" nType="-99"/>
          <Node pos="r" depth="2" NCoef="0" IVar="-1" Cut="0.0000000000000000e+00" cType="1" res="2.5671938434243202e-02" rms="3.9804929494857788e-01" purity="7.6978415250778198e-01" nType="-99"/>
        </Node>
        <Node pos="r" depth="1" NCoef="0" IVar="3" Cut="1.0615004301071167e+00" cType="1" res="2.3806443810462952e-01" rms="2.4568642675876617e-01" purity="9.2982459068298340e-01" nType="0">
          <Node pos="l" depth="2" NCoef="0" IVar="-1" Cut="0.0000000000000000e+00" cType="1" res="3.8764096796512604e-02" rms="3.7420842051506042e-01" purity="8.1481480598449707e-01" nType="-99"/>
          <Node pos="r" depth="2" NCoef="0" IVar="-1" Cut="0.0000000000000000e+00" cType="1" res="6.2559895217418671e-02" rms="1.8461032211780548e-01" purity="9.6551722288131714e-01" nType="-99"/>
        </Node>
      </Node>
    </BinaryTree>
    <BinaryTree type="DecisionTree" boostWeight="1.0000000000000000e+00" itree="9">
      <Node pos="s" depth="0" NCoef="0" IVar="0" Cut="1.8771015167236328e+01" cType="1" res="1.2704387307167053e-02" rms="3.7432298064231873e-01" purity="5.1143449544906616e-01" nType="0">
        <Node pos="l" depth="1" NCoef="0" IVar="0" Cut="8.9376029968261719e+00" cType="1" res="-1.5726888179779053e-01" rms="3.2840120792388916e-01" purity="1.3738738000392914e-01" nType="0">
          <Node pos="l" depth="2" NCoef="0" IVar="-1" Cut="0.0000000000000000e+00" cType="1" res="-5.6566741317510605e-02" rms="1.9061560928821564e-01" purity="3.7656903266906738e-02" nType="-99"/>
          <Node pos="r" depth="2" NCoef="0" IVar="-1" Cut="0.0000000000000000e+00" cType="1" res="-2.1164942532777786e-02" rms="4.2893171310424805e-01" purity="2.5365853309631348e-01" nType="-99"/>
        </Node>
        <Node pos="r" depth="1" NCoef="0" IVar="0" Cut="3.1949817657470703e+01" cType="1" res="1.5839576721191406e-01" rms="3.4898194670677185e-01" purity="8.3204632997512817e-01" nType="0">
          <Node pos="l" depth="2" NCoef="0" IVar="-1" Cut="0.0000000000000000e+00" cType="1" res="1.2231294997036457e-02" rms="4.4997361302375793e-01" purity="6.7179489135742188e-01" nType="-99"/>
          <Node pos="r" depth="2" NCoef="0" IVar="-1" Cut="0.0000000000000000e+00" cType="1" res="5.4116070270538330e-02" rms="2.5109624862670898e-01" purity="9.2879259586334229e-01" nType="-99"/>
        </Node>
      </Node>
    </BinaryTree>
    <BinaryTree type="DecisionTree" boostWeight="1.0000000000000000e+00" itree="10">
      <Node pos="s" depth="0" NCoef="0" IVar="0" Cut="1.9348848342895508e+01" cType="1" res="1.9925948232412338e-02" rms="3.6206248402595520e-01" purity="5.2371543645858765e-01" nType="0">
        <Node pos="l" depth="1" NCoef="0" IVar="0" Cut="1.1088313102722168e+01" cType="1" res="-1.3429857790470123e-01" rms="3.1915646791458130e-01" purity="1.4035087823867798e-01" nType="0">
          <Node pos="l" depth="2" NCoef="0" IVar="-1" Cut="0.0000000000000000e+00" cType="1" res="-5.4135393351316452e-02" rms="2.0102037489414215e-01" purity="4.2424242943525314e-02" nType="-99"/>
          <Node pos="r" depth="2" NCoef="0" IVar="-1" Cut="0.0000000000000000e+00" cType="1" res="5.3849951364099979e-03" rms="4.7725880146026611e-01" purity="3.9682540297508240e-01" nType="-99"/>
        </Node>
        <Node pos="r" depth="1" NCoef="0" IVar="3" Cut="1.0232944488525391e+00" cType="1" res="1.4641225337982178e-01" rms="3.4576675295829773e-01" purity="8.3812952041625977e-01" nType="0">
          <Node pos="l" depth="2" NCoef="0" IVar="-1" Cut="0.0000000000000000e+00" cType="1" res="8.0263651907444000e-03" rms="4.6301397681236267e-01" purity="6.4492756128311157e-01" nType="-99"/>
          <Node pos="r" depth="2" NCoef="0" IVar="-1" Cut="0.0000000000000000e+00" cType="1" res="4.5927021652460098e-02" rms="2.8811272978782654e-01" purity="9.0191388130187988e-01" nType="-99"/>
        </Node>
      </Node>
    </BinaryTree>
    <BinaryTree type="DecisionTree" boostWeight="1.0000000000000000e+00" itree="11">
      <Node pos="s" depth="0" NCoef="0" IVar="3" Cut="9.8181486129760742e-01" cType="1" res="1.3127286918461323e-02" rms="3.6604019999504089e-01" purity="5.2626049518585205e-01" nType="0">
        <Node pos="l" depth="1" NCoef="0" IVar="3" Cut="8.4520632028579712e-01" cType="1" res="-1.2344188243150711e-01" rms="3.5787424445152283e-01" purity="2.3655913770198822e-01" nType="0">
          <Node pos="l" depth="2" NCoef="0" IVar="-1" Cut="0.0000000000000000e+00" cType="1" res="-5.0436604768037796e-02" rms="3.0913758277893066e-01" purity="1.4576271176338196e-01" nType="-99"/>
          <Node pos="r" depth="2" NCoef="0" IVar="-1" Cut="0.0000000000000000e+00" cType="1" res="3.6054737865924835e-02" rms="3.9997693896293640e-01" purity="5.8441555500030518e-01" nType="-99"/>
        </Node>
        <Node pos="r" depth="1" NCoef="0" IVar="0" Cut="3.1448757171630859e+01" cType="1" res="1.0071992129087448e-01" rms="3.4371790289878845e-01" purity="7.1206897497177124e-01" nType="0">
          <Node pos="l" depth="2" NCoef="0" IVar="-1" Cut="0.0000000000000000e+00" cType="1" res="-3.2626019674353302e-04" rms="4.2377188801765442e-01" purity="4.5583039522171021e-01" nType="-99"/>
          <Node pos="r" depth="2" NCoef="0" IVar="-1" Cut="0.0000000000000000e+00" cType="1" res="5.4569844156503677e-02" rms="2.0052160322666168e-01" purity="9.5622897148132324e-01" nType="-99"/>
        </Node>
      </Node>
    </BinaryTree>
    <BinaryTree type="DecisionTree" boostWeight="1.0000000000000000e+00" itree="12">
      <Node pos="s" depth="0" NCoef="0" IVar="0" Cut="1.9360767364501953e+01" cType="1" res="-9.4871415058150887e-04" rms="3.6095204949378967e-01" purity="4.9902912974357605e-01" nType="0">
        <Node pos="l" depth="1" NCoef="0" IVar="1" Cut="1.3547370433807373e+00" cType="1" res="-1.1130890995264053e-01" rms="3.3172297477722168e-01" purity="1.4760914444923401e-01" nType="0">
          <Node pos="l" depth="2" NCoef="0" IVar="-1" Cut="0.0000000000000000e+00" cType="1" res="-1.8677419051527977e-02" rms="3.6211386322975159e-01" purity="1.8888889253139496e-01" nType="-99"/>
          <Node pos="r" depth="2" NCoef="0" IVar="-1" Cut="0.0000000000000000e+00" cType="1" res="-6.3455522060394287e-02" rms="1.6189455986022949e-01" purity="2.4793388321995735e-02" nType="-99"/>
        </Node>
        <Node pos="r" depth="1" NCoef="0" IVar="3" Cut="1.0205404758453369e+00" cType="1" res="9.5742091536521912e-02" rms="3.5777780413627625e-01" purity="8.0692166090011597e-01" nType="0">
          <Node pos="l" depth="2" NCoef="0" IVar="-1" Cut="0.0000000000000000e+00" cType="1" res="-2.5876301806420088e-03" rms="4.5027539134025574e-01" purity="5.9876543283462524e-01" nType="-99"/>
          <Node pos="r" depth="2" NCoef="0" IVar="-1" Cut="0.0000000000000000e+00" cType="1" res="3.8622971624135971e-02" rms="2.9972398281097412e-01" purity="8.9405685663223267e-01" nType="-99"/>
        </Node>
      </Node>
    </BinaryTree>
    <BinaryTree type="DecisionTree" boostWeight="1.0000000000000000e+00" itree="13">
      <Node pos="s" depth="0" NCoef="0" IVar="0" Cut="1.2544878959655762e+01" cType="1" res="1.1772761121392250e-02" rms="3.3948168158531189e-01" purity="5.1756882667541504e-01" nType="0">
        <Node pos="l" depth="1" NCoef="0" IVar="0" Cut="7.8693876266479492e+00" cType="1" res="-1.4235877990722656e-01" rms="2.3314227163791656e-01" purity="6.4690023660659790e-02" nType="0">
          <Node pos="l" depth="2" NCoef="0" IVar="-1" Cut="0.0000000000000000e+00" cType="1" res="-5.6287702172994614e-02" rms="1.2969022989273071e-01" purity="1.7167381942272186e-02" nType="-99"/>
          <Node pos="r" depth="2" NCoef="0" IVar="-1" Cut="0.0000000000000000e+00" cType="1" res="-2.5693709030747414e-02" rms="3.3702480792999268e-01" purity="1.4492753148078918e-01" nType="-99"/>
        </Node>
        <Node pos="r" depth="1" NCoef="0" IVar="3" Cut="9.7397994995117188e-01" cType="1" res="9.5618516206741333e-02" rms="3.5835626721382141e-01" purity="7.6392960548400879e-01" nType="0">
          <Node pos="l" depth="2" NCoef="0" IVar="-1" Cut="0.0000000000000000e+00" cType="1" res="-1.6945999115705490e-02" rms="4.3129542469978333e-01" purity="4.5882353186607361e-01" nType="-99"/>
          <Node pos="r" depth="2" NCoef="0" IVar="-1" Cut="0.0000000000000000e+00" cType="1" res="4.1349016129970551e-02" rms="3.1006589531898499e-01" purity="8.6523437500000000e-01" nType="-99"/>
        </Node>
      </Node>
    </BinaryTree>
    <BinaryTree type="DecisionTree" boostWeight="1.0000000000000000e+00" itree="14">
      <Node pos="s" depth="0" NCoef="0" IVar="0" Cut="3.0077123641967773e+01" cType="1" res="-2.0269725471735001e-02" rms="3.5365924239158630e-01" purity="4.8621040582656860e-01" nType="0">
        <Node pos="l" depth="1" NCoef="0" IVar="2" Cut="2.2266164422035217e-01" cType="1" res="-9.4441637396812439e-02" rms="3.6263400316238403e-01" purity="2.5123152136802673e-01" nType="0">
          <Node pos="l" depth="2" NCoef="0" IVar="-1" Cut="0.0000000000000000e+00" cType="1" res="-3.9373524487018585e-02" rms="2.9996329545974731e-01" purity="1.4285714924335480e-01" nType="-99"/>
          <Node pos="r" depth="2" NCoef="0" IVar="-1" Cut="0.0000000000000000e+00" cType="1" res="-1.1384129524230957e-02" rms="4.1635793447494507e-01" purity="3.7282231450080872e-01" nType="-99"/>
        </Node>
        <Node pos="r" depth="1" NCoef="0" IVar="2" Cut="4.1345216333866119e-02" cType="1" res="1.0181322693824768e-01" rms="3.0088940262794495e-01" purity="8.7297296524047852e-01" nType="0">
          <Node pos="l" depth="2" NCoef="0" IVar="-1" Cut="0.0000000000000000e+00" cType="1" res="-2.8109880164265633e-02" rms="4.7196939587593079e-01" purity="4.7619047760963440e-01" nType="-99"/>
          <Node pos="r" depth="2" NCoef="0" IVar="-1" Cut="0.0000000000000000e+00" cType="1" res="4.0635339915752411e-02" rms="2.5652068853378296e-01" purity="9.2378050088882446e-01" nType="-99"/>
        </Node>
      </Node>
    </BinaryTree>
    <BinaryTree type="DecisionTree" boostWeight="1.0000000000000000e+00" itree="15">
      <Node pos="s" depth="0" NCoef="0" IVar="0" Cut="2.6325769424438477e+01" cType="1" res="-1.0671322233974934e-02" rms="3.4364837408065796e-01" purity="4.8373982310295105e-01" nType="0">
        <Node pos="l" depth="1" NCoef="0" IVar="2" Cut="1.3245037198066711e-01" cType="1" res="-9.0684905648231506e-02" rms="3.4178280830383301e-01" purity="2.0176991820335388e-01" nType="0">
          <Node pos="l" depth="2" NCoef="0" IVar="-1" Cut="0.0000000000000000e+00" cType="1" res="-5.1149345934391022e-02" rms="2.3107017576694489e-01" purity="7.2874493896961212e-02" nType="-99"/>
          <Node pos="r" depth="2" NCoef="0" IVar="-1" Cut="0.0000000000000000e+00" cType="1" res="-7.5318152084946632e-03" rms="3.9656347036361694e-01" purity="3.0188679695129395e-01" nType="-99"/>
        </Node>
        <Node pos="r" depth="1" NCoef="0" IVar="2" Cut="1.3601295650005341e-01" cType="1" res="9.7222886979579926e-02" rms="3.1550648808479309e-01" purity="8.6396181583404541e-01" nType="0">
          <Node pos="l" depth="2" NCoef="0" IVar="-1" Cut="0.0000000000000000e+00" cType="1" res="4.2140381410717964e-03" rms="4.2845842242240906e-01" purity="7.0093458890914917e-01" nType="-99"/>
          <Node pos="r" depth="2" NCoef="0" IVar="-1" Cut="0.0000000000000000e+00" cType="1" res="3.9095364511013031e-02" rms="2.6036903262138367e-01" purity="9.1987180709838867e-01" nType="-99"/>
        </Node>
      </Node>
    </BinaryTree>
    <BinaryTree type="DecisionTree" boostWeight="1.0000000000000000e+00" itree="16">
      <Node pos="s" depth="0" NCoef="0" IVar="0" Cut="3.2536037445068359e+01" cType="1" res="-4.9270107410848141e-03" rms="3.3347767591476440e-01" purity="5.0000000000000000e-01" nType="0">
        <Node pos="l" depth="1" NCoef="0" IVar="0" Cut="1.2864211082458496e+01" cType="1" res="-6.6548869013786316e-02" rms="3.5098329186439514e-01" purity="2.8264209628105164e-01" nType="0">
          <Node pos="l" depth="2" NCoef="0" IVar="-1" Cut="0.0000000000000000e+00" cType="1" res="-4.2219389230012894e-02" rms="2.2994574904441833e-01" purity="5.9659089893102646e-02" nType="-99"/>
          <Node pos="r" depth="2" NCoef="0" IVar="-1" Cut="0.0000000000000000e+00" cType="1" res="5.5956892902031541e-04" rms="4.4403493404388428e-01" purity="5.4515051841735840e-01" nType="-99"/>
        </Node>
        <Node pos="r" depth="1" NCoef="0" IVar="2" Cut="1.2974922358989716e-01" cType="1" res="1.1340877413749695e-01" rms="2.5865504145622253e-01" purity="9.1740411520004272e-01" nType="0">
          <Node pos="l" depth="2" NCoef="0" IVar="-1" Cut="0.0000000000000000e+00" cType="1" res="3.7199449725449085e-03" rms="4.3559378385543823e-01" purity="7.2727274894714355e-01" nType="-99"/>
          <Node pos="r" depth="2" NCoef="0" IVar="-1" Cut="0.0000000000000000e+00" cType="1" res="4.8330187797546387e-02" rms="1.8514080345630646e-01" purity="9.6336996555328369e-01" nType="-99"/>
        </Node>
      </Node>
    </BinaryTree>
    <BinaryTree type="DecisionTree" boostWeight="1.0000000000000000e+00" itree="17">
      <Node pos="s" depth="0" NCoef="0" IVar="0" Cut="1.8771015167236328e+01" cType="1" res="-3.0185575596988201e-03" rms="3.3225879073143005e-01" purity="4.9188157916069031e-01" nType="0">
        <Node pos="l" depth="1" NCoef="0" IVar="0" Cut="9.5530881881713867e+00" cType="1" res="-8.2158356904983521e-02" rms="2.9675251245498657e-01" purity="1.2399999797344208e-01" nType="0">
          <Node pos="l" depth="2" NCoef="0" IVar="-1" Cut="0.0000000000000000e+00" cType="1" res="-4.9252375960350037e-02" rms="1.5802934765815735e-01" purity="2.5559104979038239e-02" nType="-99"/>
          <Node pos="r" depth="2" NCoef="0" IVar="-1" Cut="0.0000000000000000e+00" cType="1" res="-2.3368194233626127e-03" rms="4.3038794398307800e-01" purity="2.8877004981040955e-01" nType="-99"/>
        </Node>
        <Node pos="r" depth="1" NCoef="0" IVar="1" Cut="-1.8317347764968872e+00" cType="1" res="6.9321297109127045e-02" rms="3.4619754552841187e-01" purity="8.2815355062484741e-01" nType="0">
          <Node pos="l" depth="2" NCoef="0" IVar="-1" Cut="0.0000000000000000e+00" cType="1" res="-1.1358927935361862e-02" rms="4.1244688630104065e-01" purity="7.5000000000000000e-01" nType="-99"/>
          <Node pos="r" depth="2" NCoef="0" IVar="-1" Cut="0.0000000000000000e+00" cType="1" res="2.5377817451953888e-02" rms="3.3115109801292419e-01" purity="8.4076434373855591e-01" nType="-99"/>
        </Node>
      </Node>
    </BinaryTree>
    <BinaryTree type="DecisionTree" boostWeight="1.0000000000000000e+00" itree="18">
      <Node pos="s" depth="0" NCoef="0" IVar="0" Cut="3.3691028594970703e+01" cType="1" res="-1.7468148143962026e-03" rms="3.2436895370483398e-01" purity="4.8358207941055298e-01" nType="0">
        <Node pos="l" depth="1" NCoef="0" IVar="2" Cut="1.3828413188457489e-01" cType="1" res="-5.0951849669218063e-02" rms="3.4496095776557922e-01" purity="2.8386166691780090e-01" nType="0">
          <Node pos="l" depth="2" NCoef="0" IVar="-1" Cut="0.0000000000000000e+00" cType="1" res="-3.7973895668983459e-02" rms="2.5475010275840759e-01" purity="1.1475409567356110e-01" nType="-99"/>
          <Node pos="r" depth="2" NCoef="0" IVar="-1" Cut="0.0000000000000000e+00" cType="1" res="-8.4878411144018173e-04" rms="3.9521315693855286e-01" purity="4.1645243763923645e-01" nType="-99"/>
        </Node>
        <Node pos="r" depth="1" NCoef="0" IVar="1" Cut="1.3151011466979980e+00" cType="1" res="1.0805477201938629e-01" rms="2.3874561488628387e-01" purity="9.2926043272018433e-01" nType="0">
          <Node pos="l" depth="2" NCoef="0" IVar="-1" Cut="0.0000000000000000e+00" cType="1" res="4.4330026954412460e-02" rms="2.0925147831439972e-01" purity="9.4650202989578247e-01" nType="-99"/>
          <Node pos="r" depth="2" NCoef="0" IVar="-1" Cut="0.0000000000000000e+00" cType="1" res="1.4887984842061996e-02" rms="3.1388461589813232e-01" purity="8.6764705181121826e-01" nType="-99"/>
        </Node>
      </Node>
    </BinaryTree>
    <BinaryTree type="DecisionTree" boostWeight="1.0000000000000000e+00" itree="19">
      <Node pos="s" depth="0" NCoef="0" IVar="3" Cut="9.7397994995117188e-01" cType="1" res="5.5093774572014809e-03" rms="3.3544817566871643e-01" purity="5.0974661111831665e-01" nType="0">
        <Node pos="l" depth="1" NCoef="0" IVar="3" Cut="8.8220918178558350e-01" cType="1" res="-8.2069844007492065e-02" rms="3.1405758857727051e-01" purity="2.2249388694763184e-01" nType="0">
          <Node pos="l" depth="2" NCoef="0" IVar="-1" Cut="0.0000000000000000e+00" cType="1" res="-4.4242251664400101e-02" rms="2.7026024460792542e-01" purity="1.3714285194873810e-01" nType="-99"/>
          <Node pos="r" depth="2" NCoef="0" IVar="-1" Cut="0.0000000000000000e+00" cType="1" res="5.9933312237262726e-02" rms="3.6537760496139526e-01" purity="7.2881358861923218e-01" nType="-99"/>
        </Node>
        <Node pos="r" depth="1" NCoef="0" IVar="3" Cut="1.8806023597717285e+00" cType="1" res="6.3564322888851166e-02" rms="3.3657148480415344e-01" purity="7.0016205310821533e-01" nType="0">
          <Node pos="l" depth="2" NCoef="0" IVar="-1" Cut="0.0000000000000000e+00" cType="1" res="3.5293594002723694e-02" rms="3.4689080715179443e-01" purity="7.3314607143402100e-01" nType="-99"/>
          <Node pos="r" depth="2" NCoef="0" IVar="-1" Cut="0.0000000000000000e+00" cType="1" res="-4.0437309071421623e-03" rms="3.0627363920211792e-01" purity="6.5517240762710571e-01" nType="-99"/>
        </Node>
      </Node>
    </BinaryTree>
    <BinaryTree type="DecisionTree" boostWeight="1.0000000000000000e+00" itree="20">
      <Node pos="s" depth="0" NCoef="0" IVar="2" Cut="2.3027689754962921e-01" cType="1" res="-1.8332192674279213e-02" rms="3.3696946501731873e-01" purity="4.9337410926818848e-01" nType="0">
        <Node pos="l" depth="1" NCoef="0" IVar="1" Cut="-8.3075785636901855e-01" cType="1" res="-8.7871238589286804e-02" rms="3.1899291276931763e-01" purity="2.7777779102325439e-01" nType="0">
          <Node pos="l" depth="2" NCoef="0" IVar="-1" Cut="0.0000000000000000e+00" cType="1" res="-6.0192938894033432e-02" rms="2.9764172434806824e-01" purity="1.5315315127372742e-01" nType="-99"/>
          <Node pos="r" depth="2" NCoef="0" IVar="-1" Cut="0.0000000000000000e+00" cType="1" res="-1.7088161781430244e-02" rms="3.1949374079704285e-01" purity="3.2343235611915588e-01" nType="-99"/>
        </Node>
        <Node pos="r" depth="1" NCoef="0" IVar="0" Cut="3.2536357879638672e+01" cType="1" res="3.2442349940538406e-02" rms="3.4066045284271240e-01" purity="6.5079367160797119e-01" nType="0">
          <Node pos="l" depth="2" NCoef="0" IVar="-1" Cut="0.0000000000000000e+00" cType="1" res="-2.4365182034671307e-03" rms="4.0468356013298035e-01" purity="4.2769229412078857e-01" nType="-99"/>
          <Node pos="r" depth="2" NCoef="0" IVar="-1" Cut="0.0000000000000000e+00" cType="1" res="3.7562016397714615e-02" rms="2.1571487188339233e-01" purity="9.5041322708129883e-01" nType="-99"/>
        </Node>
      </Node>
    </BinaryTree>
    <BinaryTree type="DecisionTree" boostWeight="1.0000000000000000e+00" itree="21">
      <Node pos="s" depth="0" NCoef="0" IVar="2" Cut="2.2900867462158203e-01" cType="1" res="-9.1446461156010628e-03" rms="3.2072231173515320e-01" purity="4.8233047127723694e-01" nType="0">
        <Node pos="l" depth="1" NCoef="0" IVar="2" Cut="-6.4001949504017830e-03" cType="1" res="-6.6019110381603241e-02" rms="3.1809544563293457e-01" purity="2.7450981736183167e-01" nType="0">
          <Node pos="l" depth="2" NCoef="0" IVar="-1" Cut="0.0000000000000000e+00" cType="1" res="-6.2302876263856888e-02" rms="2.4090822041034698e-01" purity="6.4102567732334137e-02" nType="-99"/>
          <Node pos="r" depth="2" NCoef="0" IVar="-1" Cut="0.0000000000000000e+00" cType="1" res="-1.3613186776638031e-02" rms="3.2612958550453186e-01" purity="3.1758528947830200e-01" nType="-99"/>
        </Node>
        <Node pos="r" depth="1" NCoef="0" IVar="0" Cut="1.8771352767944336e+01" cType="1" res="3.5252258181571960e-02" rms="3.1571599841117859e-01" purity="6.4455783367156982e-01" nType="0">
          <Node pos="l" depth="2" NCoef="0" IVar="-1" Cut="0.0000000000000000e+00" cType="1" res="-1.3955415226519108e-02" rms="3.3528804779052734e-01" purity="1.7910447716712952e-01" nType="-99"/>
          <Node pos="r" depth="2" NCoef="0" IVar="-1" Cut="0.0000000000000000e+00" cType="1" res="2.6528647169470787e-02" rms="2.9642179608345032e-01" purity="8.8630491495132446e-01" nType="-99"/>
        </Node>
      </Node>
    </BinaryTree>
    <BinaryTree type="DecisionTree" boostWeight="1.0000000000000000e+00" itree="22">
      <Node pos="s" depth="0" NCoef="0" IVar="3" Cut="9.8298084735870361e-01" cType="1" res="-4.3421150185167789e-03" rms="3.1998017430305481e-01" purity="4.8645833134651184e-01" nType="0">
        <Node pos="l" depth="1" NCoef="0" IVar="3" Cut="8.9202082157135010e-01" cType="1" res="-8.0237813293933868e-02" rms="3.0088734626770020e-01" purity="1.9651740789413452e-01" nType="0">
          <Node pos="l" depth="2" NCoef="0" IVar="-1" Cut="0.0000000000000000e+00" cType="1" res="-4.7562111169099808e-02" rms="2.5999206304550171e-01" purity="1.0434782505035400e-01" nType="-99"/>
          <Node pos="r" depth="2" NCoef="0" IVar="-1" Cut="0.0000000000000000e+00" cType="1" res="6.2467556446790695e-02" rms="3.2501193881034851e-01" purity="7.5438594818115234e-01" nType="-99"/>
        </Node>
        <Node pos="r" depth="1" NCoef="0" IVar="3" Cut="1.8889555931091309e+00" cType="1" res="5.0335433334112167e-02" rms="3.2216137647628784e-01" purity="6.9534051418304443e-01" nType="0">
          <Node pos="l" depth="2" NCoef="0" IVar="-1" Cut="0.0000000000000000e+00" cType="1" res="3.3549372106790543e-02" rms="3.2098963856697083e-01" purity="7.4461537599563599e-01" nType="-99"/>
          <Node pos="r" depth="2" NCoef="0" IVar="-1" Cut="0.0000000000000000e+00" cType="1" res="-8.2852039486169815e-03" rms="3.0859616398811340e-01" purity="6.2660944461822510e-01" nType="-99"/>
        </Node>
      </Node>
    </BinaryTree>
    <BinaryTree type="DecisionTree" boostWeight="1.0000000000000000e+00" itree="23">
      <Node pos="s" depth="0" NCoef="0" IVar="2" Cut="2.3117806017398834e-01" cType="1" res="2.4239064659923315e-03" rms="3.2549846172332764e-01" purity="5.0844091176986694e-01" nType="0">
        <Node pos="l" depth="1" NCoef="0" IVar="3" Cut="7.7742779254913330e-01" cType="1" res="-5.8289729058742523e-02" rms="3.1765332818031311e-01" purity="2.8606966137886047e-01" nType="0">
          <Node pos="l" depth="2" NCoef="0" IVar="-1" Cut="0.0000000000000000e+00" cType="1" res="-6.6322475671768188e-02" rms="1.6605404019355774e-01" purity="1.1494252830743790e-02" nType="-99"/>
          <Node pos="r" depth="2" NCoef="0" IVar="-1" Cut="0.0000000000000000e+00" cType="1" res="6.1861863359808922e-03" rms="3.7725323438644409e-01" purity="4.9561402201652527e-01" nType="-99"/>
        </Node>
        <Node pos="r" depth="1" NCoef="0" IVar="0" Cut="1.9348848342895508e+01" cType="1" res="4.2765859514474869e-02" rms="3.2438415288925171e-01" purity="6.5619832277297974e-01" nType="0">
          <Node pos="l" depth="2" NCoef="0" IVar="-1" Cut="0.0000000000000000e+00" cType="1" res="-4.5023136772215366e-03" rms="3.8220429420471191e-01" purity="2.3660714924335480e-01" nType="-99"/>
          <Node pos="r" depth="2" NCoef="0" IVar="-1" Cut="0.0000000000000000e+00" cType="1" res="2.8427442535758018e-02" rms="2.7929183840751648e-01" purity="9.0288716554641724e-01" nType="-99"/>
        </Node>
      </Node>
    </BinaryTree>
    <BinaryTree type="DecisionTree" boostWeight="1.0000000000000000e+00" itree="24">
      <Node pos="s" depth="0" NCoef="0" IVar="0" Cut="3.2536037445068359e+01" cType="1" res="-1.8143482739105821e-03" rms="3.2033595442771912e-01" purity="4.8761904239654541e-01" nType="0">
        <Node pos="l" depth="1" NCoef="0" IVar="1" Cut="1.8435173034667969e+00" cType="1" res="-3.8668889552354813e-02" rms="3.4549418091773987e-01" purity="2.8230336308479309e-01" nType="0">
          <Node pos="l" depth="2" NCoef="0" IVar="-1" Cut="0.0000000000000000e+00" cType="1" res="-5.8265668340027332e-03" rms="3.5439738631248474e-01" purity="3.0831974744796753e-01" nType="-99"/>
          <Node pos="r" depth="2" NCoef="0" IVar="-1" Cut="0.0000000000000000e+00" cType="1" res="-5.1734827458858490e-02" rms="2.4982617795467377e-01" purity="1.2121212482452393e-01" nType="-99"/>
        </Node>
        <Node pos="r" depth="1" NCoef="0" IVar="2" Cut="5.0709295272827148e-01" cType="1" res="7.5820073485374451e-02" rms="2.4174465239048004e-01" purity="9.2011833190917969e-01" nType="0">
          <Node pos="l" depth="2" NCoef="0" IVar="-1" Cut="0.0000000000000000e+00" cType="1" res="1.9062994047999382e-02" rms="3.0132862925529480e-01" purity="8.6746990680694580e-01" nType="-99"/>
          <Node pos="r" depth="2" NCoef="0" IVar="-1" Cut="0.0000000000000000e+00" cType="1" res="4.4996857643127441e-02" rms="1.6188612580299377e-01" purity="9.7093021869659424e-01" nType="-99"/>
        </Node>
      </Node>
    </BinaryTree>
    <BinaryTree type="DecisionTree" boostWeight="1.0000000000000000e+00" itree="25">
      <Node pos="s" depth="0" NCoef="0" IVar="0" Cut="1.8774028778076172e+01" cType="1" res="1.3784545473754406e-02" rms="3.1366339325904846e-01" purity="5.1807230710983276e-01" nType="0">
        <Node pos="l" depth="1" NCoef="0" IVar="1" Cut="1.3583935499191284e+00" cType="1" res="-3.7517696619033813e-02" rms="3.0628696084022522e-01" purity="1.3747228682041168e-01" nType="0">
          <Node pos="l" depth="2" NCoef="0" IVar="-1" Cut="0.0000000000000000e+00" cType="1" res="-5.2275310736149549e-04" rms="3.3384624123573303e-01" purity="1.7484661936759949e-01" nType="-99"/>
          <Node pos="r" depth="2" NCoef="0" IVar="-1" Cut="0.0000000000000000e+00" cType="1" res="-4.9516811966896057e-02" rms="1.8848621845245361e-01" purity="3.9999999105930328e-02" nType="-99"/>
        </Node>
        <Node pos="r" depth="1" NCoef="0" IVar="2" Cut="4.1766051203012466e-02" cType="1" res="5.6238327175378799e-02" rms="3.1335076689720154e-01" purity="8.3302754163742065e-01" nType="0">
          <Node pos="l" depth="2" NCoef="0" IVar="-1" Cut="0.0000000000000000e+00" cType="1" res="-1.9925886765122414e-02" rms="4.2139515280723572e-01" purity="4.4444444775581360e-01" nType="-99"/>
          <Node pos="r" depth="2" NCoef="0" IVar="-1" Cut="0.0000000000000000e+00" cType="1" res="2.5014882907271385e-02" rms="2.9494363069534302e-01" purity="8.7576377391815186e-01" nType="-99"/>
        </Node>
      </Node>
    </BinaryTree>
    <BinaryTree type="DecisionTree" boostWeight="1.0000000000000000e+00" itree="26">
      <Node pos="s" depth="0" NCoef="0" IVar="2" Cut="2.3314115405082703e-01" cType="1" res="2.1659024059772491e-03" rms="3.2629826664924622e-01" purity="4.9747219681739807e-01" nType="0">
        <Node pos="l" depth="1" NCoef="0" IVar="1" Cut="-8.2041162252426147e-01" cType="1" res="-4.6428862959146500e-02" rms="3.0555683374404907e-01" purity="2.9912662506103516e-01" nType="0">
          <Node pos="l" depth="2" NCoef="0" IVar="-1" Cut="0.0000000000000000e+00" cType="1" res="-4.8103921115398407e-02" rms="2.7578383684158325e-01" purity="1.5748031437397003e-01" nType="-99"/>
          <Node pos="r" depth="2" NCoef="0" IVar="-1" Cut="0.0000000000000000e+00" cType="1" res="-4.0687867440283298e-03" rms="3.0929380655288696e-01" purity="3.5347431898117065e-01" nType="-99"/>
        </Node>
        <Node pos="r" depth="1" NCoef="0" IVar="1" Cut="2.0905547142028809e+00" cType="1" res="4.4080030173063278e-02" rms="3.3761045336723328e-01" purity="6.6854989528656006e-01" nType="0">
          <Node pos="l" depth="2" NCoef="0" IVar="-1" Cut="0.0000000000000000e+00" cType="1" res="2.0251760259270668e-02" rms="3.2595375180244446e-01" purity="6.9979298114776611e-01" nType="-99"/>
          <Node pos="r" depth="2" NCoef="0" IVar="-1" Cut="0.0000000000000000e+00" cType="1" res="-2.9645320028066635e-02" rms="4.1774263978004456e-01" purity="3.5416665673255920e-01" nType="-99"/>
        </Node>
      </Node>
    </BinaryTree>
    <BinaryTree type="DecisionTree" boostWeight="1.0000000000000000e+00" itree="27">
      <Node pos="s" depth="0" NCoef="0" IVar="0" Cut="3.3691028594970703e+01" cType="1" res="4.7263186424970627e-03" rms="3.1808540225028992e-01" purity="5.1212120056152344e-01" nType="0">
        <Node pos="l" depth="1" NCoef="0" IVar="3" Cut="2.8765819072723389e+00" cType="1" res="-3.1334634870290756e-02" rms="3.4974491596221924e-01" purity="3.0734631419181824e-01" nType="0">
          <Node pos="l" depth="2" NCoef="0" IVar="-1" Cut="0.0000000000000000e+00" cType="1" res="-5.1479516550898552e-03" rms="3.4226784110069275e-01" purity="3.0017152428627014e-01" nType="-99"/>
          <Node pos="r" depth="2" NCoef="0" IVar="-1" Cut="0.0000000000000000e+00" cType="1" res="-4.2954526841640472e-02" rms="3.7957903742790222e-01" purity="3.5714286565780640e-01" nType="-99"/>
        </Node>
        <Node pos="r" depth="1" NCoef="0" IVar="1" Cut="-8.4725970029830933e-01" cType="1" res="7.9192750155925751e-02" rms="2.2200623154640198e-01" purity="9.3498450517654419e-01" nType="0">
          <Node pos="l" depth="2" NCoef="0" IVar="-1" Cut="0.0000000000000000e+00" cType="1" res="2.3365542292594910e-02" rms="2.4437136948108673e-01" purity="9.2233008146286011e-01" nType="-99"/>
          <Node pos="r" depth="2" NCoef="0" IVar="-1" Cut="0.0000000000000000e+00" cType="1" res="4.0138546377420425e-02" rms="2.0923079550266266e-01" purity="9.4090908765792847e-01" nType="-99"/>
        </Node>
      </Node>
    </BinaryTree>
    <BinaryTree type="DecisionTree" boostWeight="1.0000000000000000e+00" itree="28">
      <Node pos="s" depth="0" NCoef="0" IVar="0" Cut="3.1441099166870117e+01" cType="1" res="-2.3192089051008224e-02" rms="3.0892744660377502e-01" purity="4.6051281690597534e-01" nType="0">
        <Node pos="l" depth="1" NCoef="0" IVar="0" Cut="1.1286229133605957e+01" cType="1" res="-5.0922662019729614e-02" rms="3.1747084856033325e-01" purity="2.5416037440299988e-01" nType="0">
          <Node pos="l" depth="2" NCoef="0" IVar="-1" Cut="0.0000000000000000e+00" cType="1" res="-4.6803008764982224e-02" rms="1.4943599700927734e-01" purity="2.3529412224888802e-02" nType="-99"/>
          <Node pos="r" depth="2" NCoef="0" IVar="-1" Cut="0.0000000000000000e+00" cType="1" res="-8.3173945313319564e-04" rms="4.2365580797195435e-01" purity="4.9844238162040710e-01" nType="-99"/>
        </Node>
        <Node pos="r" depth="1" NCoef="0" IVar="3" Cut="6.7430500984191895e+00" cType="1" res="3.5183414816856384e-02" rms="2.8132563829421997e-01" purity="8.9490443468093872e-01" nType="0">
          <Node pos="l" depth="2" NCoef="0" IVar="-1" Cut="0.0000000000000000e+00" cType="1" res="2.1407268941402435e-02" rms="2.6478776335716248e-01" purity="9.0559440851211548e-01" nType="-99"/>
          <Node pos="r" depth="2" NCoef="0" IVar="-1" Cut="0.0000000000000000e+00" cType="1" res="-5.4716438055038452e-02" rms="3.8706633448600769e-01" purity="7.8571426868438721e-01" nType="-99"/>
        </Node>
      </Node>
    </BinaryTree>
    <BinaryTree type="DecisionTree" boostWeight="1.0000000000000000e+00" itree="29">
      <Node pos="s" depth="0" NCoef="0" IVar="3" Cut="9.8181486129760742e-01" cType="1" res="2.0277264993637800e-03" rms="3.0535894632339478e-01" purity="5.0584793090820312e-01" nType="0">
        <Node pos="l" depth="1" NCoef="0" IVar="3" Cut="8.9044523239135742e-01" cType="1" res="-4.1850674897432327e-02" rms="3.0191674828529358e-01" purity="2.2891566157341003e-01" nType="0">
          <Node pos="l" depth="2" NCoef="0" IVar="-1" Cut="0.0000000000000000e+00" cType="1" res="-3.9848163723945618e-02" rms="2.5054770708084106e-01" purity="1.3218390941619873e-01" nType="-99"/>
          <Node pos="r" depth="2" NCoef="0" IVar="-1" Cut="0.0000000000000000e+00" cType="1" res="6.6139563918113708e-02" rms="3.7764555215835571e-01" purity="7.3134326934814453e-01" nType="-99"/>
        </Node>
        <Node pos="r" depth="1" NCoef="0" IVar="1" Cut="-1.8296098709106445e+00" cType="1" res="3.1830571591854095e-02" rms="3.0408549308776855e-01" purity="6.9394433498382568e-01" nType="0">
          <Node pos="l" depth="2" NCoef="0" IVar="-1" Cut="0.0000000000000000e+00" cType="1" res="-2.4782158434391022e-02" rms="3.7485191226005554e-01" purity="4.8543688654899597e-01" nType="-99"/>
          <Node pos="r" depth="2" NCoef="0" IVar="-1" Cut="0.0000000000000000e+00" cType="1" res="2.1235853433609009e-02" rms="2.8267624974250793e-01" purity="7.3622047901153564e-01" nType="-99"/>
        </Node>
      </Node>
    </BinaryTree>
    <BinaryTree type="DecisionTree" boostWeight="1.0000000000000000e+00" itree="30">
      <Node pos="s" depth="0" NCoef="0" IVar="2" Cut="4.1003528982400894e-02" cType="1" res="1.4332983642816544e-02" rms="3.0700871348381042e-01" purity="5.2791380882263184e-01" nType="0">
        <Node pos="l" depth="1" NCoef="0" IVar="1" Cut="8.2542890310287476e-01" cType="1" res="-7.2296939790248871e-02" rms="2.8008750081062317e-01" purity="1.5999999642372131e-01" nType="0">
          <Node pos="l" depth="2" NCoef="0" IVar="-1" Cut="0.0000000000000000e+00" cType="1" res="-1.5669256448745728e-02" rms="2.9171651601791382e-01" purity="1.9871795177459717e-01" nType="-99"/>
          <Node pos="r" depth="2" NCoef="0" IVar="-1" Cut="0.0000000000000000e+00" cType="1" res="-6.9469571113586426e-02" rms="1.9695641100406647e-01" purity="2.2727273404598236e-02" nType="-99"/>
        </Node>
        <Node pos="r" depth="1" NCoef="0" IVar="1" Cut="2.0217173099517822e+00" cType="1" res="3.5436496138572693e-02" rms="3.0956593155860901e-01" purity="6.1753958463668823e-01" nType="0">
          <Node pos="l" depth="2" NCoef="0" IVar="-1" Cut="0.0000000000000000e+00" cType="1" res="2.0290410146117210e-02" rms="3.0416399240493774e-01" purity="6.5264588594436646e-01" nType="-99"/>
          <Node pos="r" depth="2" NCoef="0" IVar="-1" Cut="0.0000000000000000e+00" cType="1" res="-4.3451923877000809e-02" rms="3.1466877460479736e-01" purity="3.0952382087707520e-01" nType="-99"/>
        </Node>
      </Node>
    </BinaryTree>
    <BinaryTree type="DecisionTree" boostWeight="1.0000000000000000e+00" itree="31">
      <Node pos="s" depth="0" NCoef="0" IVar="1" Cut="1.3575565814971924e+00" cType="1" res="3.2033531460911036e-03" rms="3.2035660743713379e-01" purity="5.1773047447204590e-01" nType="0">
        <Node pos="l" depth="1" NCoef="0" IVar="2" Cut="3.2962996512651443e-02" cType="1" res="2.5956580415368080e-02" rms="3.1787168979644775e-01" purity="5.6129032373428345e-01" nType="0">
          <Node pos="l" depth="2" NCoef="0" IVar="-1" Cut="0.0000000000000000e+00" cType="1" res="-2.0839674398303032e-02" rms="2.7491438388824463e-01" purity="1.6783216595649719e-01" nType="-99"/>
          <Node pos="r" depth="2" NCoef="0" IVar="-1" Cut="0.0000000000000000e+00" cType="1" res="1.5981778502464294e-02" rms="3.2423359155654907e-01" purity="6.5031647682189941e-01" nType="-99"/>
        </Node>
        <Node pos="r" depth="1" NCoef="0" IVar="2" Cut="6.1000210046768188e-01" cType="1" res="-7.9974718391895294e-02" rms="3.1561830639839172e-01" purity="3.5849055647850037e-01" nType="0">
          <Node pos="l" depth="2" NCoef="0" IVar="-1" Cut="0.0000000000000000e+00" cType="1" res="-1.4097010716795921e-02" rms="2.3953197896480560e-01" purity="3.4920635819435120e-01" nType="-99"/>
          <Node pos="r" depth="2" NCoef="0" IVar="-1" Cut="0.0000000000000000e+00" cType="1" res="-5.1343113183975220e-02" rms="3.9237862825393677e-01" purity="3.7209302186965942e-01" nType="-99"/>
        </Node>
      </Node>
    </BinaryTree>
    <BinaryTree type="DecisionTree" boostWeight="1.0000000000000000e+00" itree="32">
      <Node pos="s" depth="0" NCoef="0" IVar="1" Cut="2.0592401027679443e+00" cType="1" res="3.6452647764235735e-03" rms="3.1264168024063110e-01" purity="5.0668036937713623e-01" nType="0">
        <Node pos="l" depth="1" NCoef="0" IVar="3" Cut="1.0044709444046021e+00" cType="1" res="1.6402825713157654e-02" rms="3.0697727203369141e-01" purity="5.2716761827468872e-01" nType="0">
          <Node pos="l" depth="2" NCoef="0" IVar="-1" Cut="0.0000000000000000e+00" cType="1" res="-1.1446169577538967e-02" rms="3.0045783519744873e-01" purity="2.6370757818222046e-01" nType="-99"/>
          <Node pos="r" depth="2" NCoef="0" IVar="-1" Cut="0.0000000000000000e+00" cType="1" res="2.0738210529088974e-02" rms="3.0699932575225830e-01" purity="7.3651450872421265e-01" nType="-99"/>
        </Node>
        <Node pos="r" depth="1" NCoef="0" IVar="2" Cut="5.9927707910537720e-01" cType="1" res="-9.8533354699611664e-02" rms="3.3780395984649658e-01" purity="3.4259259700775146e-01" nType="0">
          <Node pos="l" depth="2" NCoef="0" IVar="-1" Cut="0.0000000000000000e+00" cType="1" res="-1.9838498905301094e-02" rms="2.9399558901786804e-01" purity="3.7878787517547607e-01" nType="-99"/>
          <Node pos="r" depth="2" NCoef="0" IVar="-1" Cut="0.0000000000000000e+00" cType="1" res="-7.3813639581203461e-02" rms="3.8572156429290771e-01" purity="2.8571429848670959e-01" nType="-99"/>
        </Node>
      </Node>
    </BinaryTree>
    <BinaryTree type="DecisionTree" boostWeight="1.0000000000000000e+00" itree="33">
      <Node pos="s" depth="0" NCoef="0" IVar="2" Cut="2.3117806017398834e-01" cType="1" res="1.5459339134395123e-02" rms="3.1940081715583801e-01" purity="5.0718683004379272e-01" nType="0">
        <Node pos="l" depth="1" NCoef="0" IVar="3" Cut="7.4410688877105713e-01" cType="1" res="-3.2143998891115189e-02" rms="3.0047476291656494e-01" purity="3.0303031206130981e-01" nType="0">
          <Node pos="l" depth="2" NCoef="0" IVar="-1" Cut="0.0000000000000000e+00" cType="1" res="-6.1778683215379715e-02" rms="1.6027486324310303e-01" purity="1.1627906933426857e-02" nType="-99"/>
          <Node pos="r" depth="2" NCoef="0" IVar="-1" Cut="0.0000000000000000e+00" cType="1" res="7.1290289051830769e-03" rms="3.5547319054603577e-01" purity="4.9805447459220886e-01" nType="-99"/>
        </Node>
        <Node pos="r" depth="1" NCoef="0" IVar="0" Cut="1.2572991371154785e+01" cType="1" res="5.2930589765310287e-02" rms="3.2873058319091797e-01" purity="6.6788989305496216e-01" nType="0">
          <Node pos="l" depth="2" NCoef="0" IVar="-1" Cut="0.0000000000000000e+00" cType="1" res="-3.2225938048213720e-03" rms="3.3926042914390564e-01" purity="1.5540540218353271e-01" nType="-99"/>
          <Node pos="r" depth="2" NCoef="0" IVar="-1" Cut="0.0000000000000000e+00" cType="1" res="2.8132243081927299e-02" rms="3.2172706723213196e-01" purity="8.5894209146499634e-01" nType="-99"/>
        </Node>
      </Node>
    </BinaryTree>
    <BinaryTree type="DecisionTree" boostWeight="1.0000000000000000e+00" itree="34">
      <Node pos="s" depth="0" NCoef="0" IVar="3" Cut="9.8181486129760742e-01" cType="1" res="3.2386446837335825e-03" rms="3.0844938755035400e-01" purity="5.1616162061691284e-01" nType="0">
        <Node pos="l" depth="1" NCoef="0" IVar="3" Cut="8.4464758634567261e-01" cType="1" res="-4.4485680758953094e-02" rms="3.2180252671241760e-01" purity="2.1428571641445160e-01" nType="0">
          <Node pos="l" depth="2" NCoef="0" IVar="-1" Cut="0.0000000000000000e+00" cType="1" res="-3.8593422621488571e-02" rms="2.6164263486862183e-01" purity="1.0996563732624054e-01" nType="-99"/>
          <Node pos="r" depth="2" NCoef="0" IVar="-1" Cut="0.0000000000000000e+00" cType="1" res="2.9972869902849197e-02" rms="4.4077315926551819e-01" purity="5.6321841478347778e-01" nType="-99"/>
        </Node>
        <Node pos="r" depth="1" NCoef="0" IVar="0" Cut="1.3374109268188477e+01" cType="1" res="3.2715436071157455e-02" rms="2.9608675837516785e-01" purity="7.0261436700820923e-01" nType="0">
          <Node pos="l" depth="2" NCoef="0" IVar="-1" Cut="0.0000000000000000e+00" cType="1" res="-2.8297480195760727e-02" rms="2.5987669825553894e-01" purity="9.3750000000000000e-02" nType="-99"/>
          <Node pos="r" depth="2" NCoef="0" IVar="-1" Cut="0.0000000000000000e+00" cType="1" res="2.4028694257140160e-02" rms="2.9824170470237732e-01" purity="8.6363637447357178e-01" nType="-99"/>
        </Node>
      </Node>
    </BinaryTree>
    <BinaryTree type="DecisionTree" boostWeight="1.0000000000000000e+00" itree="35">
      <Node pos="s" depth="0" NCoef="0" IVar="1" Cut="2.0940234661102295e+00" cType="1" res="-3.9510247297585011e-03" rms="2.9686525464057922e-01" purity="5.0045913457870483e-01" nType="0">
        <Node pos="l" depth="1" NCoef="0" IVar="2" Cut="4.1766051203012466e-02" cType="1" res="7.7216094359755516e-03" rms="2.9304501414299011e-01" purity="5.2732795476913452e-01" nType="0">
          <Node pos="l" depth="2" NCoef="0" IVar="-1" Cut="0.0000000000000000e+00" cType="1" res="-3.1872928142547607e-02" rms="2.3578721284866333e-01" purity="1.1917098611593246e-01" nType="-99"/>
          <Node pos="r" depth="2" NCoef="0" IVar="-1" Cut="0.0000000000000000e+00" cType="1" res="1.0261034592986107e-02" rms="3.0249646306037903e-01" purity="6.2641507387161255e-01" nType="-99"/>
        </Node>
        <Node pos="r" depth="1" NCoef="0" IVar="3" Cut="1.9252809286117554e+00" cType="1" res="-1.1813481152057648e-01" rms="3.0952116847038269e-01" purity="2.3762376606464386e-01" nType="0">
          <Node pos="l" depth="2" NCoef="0" IVar="-1" Cut="0.0000000000000000e+00" cType="1" res="-1.6085598617792130e-02" rms="2.4058142304420471e-01" purity="2.5454545021057129e-01" nType="-99"/>
          <Node pos="r" depth="2" NCoef="0" IVar="-1" Cut="0.0000000000000000e+00" cType="1" res="-8.2957513630390167e-02" rms="3.5313257575035095e-01" purity="2.1739129722118378e-01" nType="-99"/>
        </Node>
      </Node>
    </BinaryTree>
    <BinaryTree type="DecisionTree" boostWeight="1.0000000000000000e+00" itree="36">
      <Node pos="s" depth="0" NCoef="0" IVar="0" Cut="3.3693893432617188e+01" cType="1" res="-5.8438307605683804e-03" rms="2.9142400622367859e-01" purity="4.8737862706184387e-01" nType="0">
        <Node pos="l" depth="1" NCoef="0" IVar="0" Cut="1.0467112541198730e+01" cType="1" res="-2.7181249111890793e-02" rms="3.1009471416473389e-01" purity="2.9312762618064880e-01" nType="0">
          <Node pos="l" depth="2" NCoef="0" IVar="-1" Cut="0.0000000000000000e+00" cType="1" res="-4.6186879277229309e-02" rms="1.3077111542224884e-01" purity="1.8181817606091499e-02" nType="-99"/>
          <Node pos="r" depth="2" NCoef="0" IVar="-1" Cut="0.0000000000000000e+00" cType="1" res="4.0357019752264023e-03" rms="4.0067821741104126e-01" purity="5.3002613782882690e-01" nType="-99"/>
        </Node>
        <Node pos="r" depth="1" NCoef="0" IVar="1" Cut="-3.8106250762939453e-01" cType="1" res="4.2148534208536148e-02" rms="2.3736101388931274e-01" purity="9.2429023981094360e-01" nType="0">
          <Node pos="l" depth="2" NCoef="0" IVar="-1" Cut="0.0000000000000000e+00" cType="1" res="6.4481729641556740e-03" rms="2.6994669437408447e-01" purity="9.0076333284378052e-01" nType="-99"/>
          <Node pos="r" depth="2" NCoef="0" IVar="-1" Cut="0.0000000000000000e+00" cType="1" res="3.2697126269340515e-02" rms="2.0875589549541473e-01" purity="9.4086021184921265e-01" nType="-99"/>
        </Node>
      </Node>
    </BinaryTree>
    <BinaryTree type="DecisionTree" boostWeight="1.0000000000000000e+00" itree="37">
      <Node pos="s" depth="0" NCoef="0" IVar="0" Cut="1.9348848342895508e+01" cType="1" res="1.0094242170453072e-02" rms="2.8574240207672119e-01" purity="5.2533608675003052e-01" nType="0">
        <Node pos="l" depth="1" NCoef="0" IVar="3" Cut="1.9478127956390381e+00" cType="1" res="-3.0854327604174614e-02" rms="2.8461217880249023e-01" purity="1.3103447854518890e-01" nType="0">
          <Node pos="l" depth="2" NCoef="0" IVar="-1" Cut="0.0000000000000000e+00" cType="1" res="-7.4661714024841785e-03" rms="2.8400099277496338e-01" purity="1.3586956262588501e-01" nType="-99"/>
          <Node pos="r" depth="2" NCoef="0" IVar="-1" Cut="0.0000000000000000e+00" cType="1" res="-3.8155414164066315e-02" rms="2.7493619918823242e-01" purity="1.0447761416435242e-01" nType="-99"/>
        </Node>
        <Node pos="r" depth="1" NCoef="0" IVar="1" Cut="-3.9233160018920898e-01" cType="1" res="4.3576624244451523e-02" rms="2.8228300809860229e-01" purity="8.4774434566497803e-01" nType="0">
          <Node pos="l" depth="2" NCoef="0" IVar="-1" Cut="0.0000000000000000e+00" cType="1" res="-1.3718304689973593e-03" rms="3.1214302778244019e-01" purity="8.1171548366546631e-01" nType="-99"/>
          <Node pos="r" depth="2" NCoef="0" IVar="-1" Cut="0.0000000000000000e+00" cType="1" res="3.2257013022899628e-02" rms="2.4887111783027649e-01" purity="8.7713313102722168e-01" nType="-99"/>
        </Node>
      </Node>
    </BinaryTree>
    <BinaryTree type="DecisionTree" boostWeight="1.0000000000000000e+00" itree="38">
      <Node pos="s" depth="0" NCoef="0" IVar="2" Cut="2.2389499843120575e-01" cType="1" res="8.8262697681784630e-03" rms="3.1859910488128662e-01" purity="5.2705413103103638e-01" nType="0">
        <Node pos="l" depth="1" NCoef="0" IVar="3" Cut="1.9327241182327271e+00" cType="1" res="-3.0831364914774895e-02" rms="3.1123211979866028e-01" purity="2.9216152429580688e-01" nType="0">
          <Node pos="l" depth="2" NCoef="0" IVar="-1" Cut="0.0000000000000000e+00" cType="1" res="-5.1355175673961639e-03" rms="2.9514667391777039e-01" purity="2.9797980189323425e-01" nType="-99"/>
          <Node pos="r" depth="2" NCoef="0" IVar="-1" Cut="0.0000000000000000e+00" cType="1" res="-1.0060750693082809e-01" rms="3.9795619249343872e-01" purity="2.0000000298023224e-01" nType="-99"/>
        </Node>
        <Node pos="r" depth="1" NCoef="0" IVar="2" Cut="9.4124937057495117e-01" cType="1" res="3.7761908024549484e-02" rms="3.2078978419303894e-01" purity="6.9844019412994385e-01" nType="0">
          <Node pos="l" depth="2" NCoef="0" IVar="-1" Cut="0.0000000000000000e+00" cType="1" res="2.2439189255237579e-02" rms="3.1063327193260193e-01" purity="7.1584701538085938e-01" nType="-99"/>
          <Node pos="r" depth="2" NCoef="0" IVar="-1" Cut="0.0000000000000000e+00" cType="1" res="-1.1167369782924652e-01" rms="3.6994418501853943e-01" purity="3.5714286565780640e-01" nType="-99"/>
        </Node>
      </Node>
    </BinaryTree>
    <BinaryTree type="DecisionTree" boostWeight="1.0000000000000000e+00" itree="39">
      <Node pos="s" depth="0" NCoef="0" IVar="1" Cut="-1.8246625661849976e+00" cType="1" res="5.0146109424531460e-03" rms="3.1012499332427979e-01" purity="5.2253115177154541e-01" nType="0">
        <Node pos="l" depth="1" NCoef="0" IVar="1" Cut="-2.3142580986022949e+00" cType="1" res="-6.9233223795890808e-02" rms="3.6145856976509094e-01" purity="4.2500001192092896e-01" nType="0">
          <Node pos="l" depth="2" NCoef="0" IVar="-1" Cut="0.0000000000000000e+00" cType="1" res="2.5482770055532455e-02" rms="3.4633067250251770e-01" purity="4.7058823704719543e-01" nType="-99"/>
          <Node pos="r" depth="2" NCoef="0" IVar="-1" Cut="0.0000000000000000e+00" cType="1" res="-5.0491929054260254e-02" rms="3.5156616568565369e-01" purity="4.0697672963142395e-01" nType="-99"/>
        </Node>
        <Node pos="r" depth="1" NCoef="0" IVar="1" Cut="1.7423897981643677e+00" cType="1" res="1.4667633920907974e-02" rms="3.0147224664688110e-01" purity="5.3521126508712769e-01" nType="0">
          <Node pos="l" depth="2" NCoef="0" IVar="-1" Cut="0.0000000000000000e+00" cType="1" res="1.3523537665605545e-02" rms="3.0321854352951050e-01" purity="5.8611112833023071e-01" nType="-99"/>
          <Node pos="r" depth="2" NCoef="0" IVar="-1" Cut="0.0000000000000000e+00" cType="1" res="-2.2733494639396667e-02" rms="2.8661143779754639e-01" purity="3.5467979311943054e-01" nType="-99"/>
        </Node>
      </Node>
    </BinaryTree>
    <BinaryTree type="DecisionTree" boostWeight="1.0000000000000000e+00" itree="40">
      <Node pos="s" depth="0" NCoef="0" IVar="3" Cut="1.5245745658874512e+01" cType="1" res="-1.3796160928905010e-02" rms="3.1048217415809631e-01" purity="4.8554337024688721e-01" nType="0">
        <Node pos="l" depth="1" NCoef="0" IVar="3" Cut="7.3306953907012939e-01" cType="1" res="-9.6974447369575500e-03" rms="3.0868837237358093e-01" purity="4.8360654711723328e-01" nType="0">
          <Node pos="l" depth="2" NCoef="0" IVar="-1" Cut="0.0000000000000000e+00" cType="1" res="-3.6210782825946808e-02" rms="2.0784802734851837e-01" purity="1.1206896603107452e-01" nType="-99"/>
          <Node pos="r" depth="2" NCoef="0" IVar="-1" Cut="0.0000000000000000e+00" cType="1" res="3.9154216647148132e-03" rms="3.3160021901130676e-01" purity="5.9946238994598389e-01" nType="-99"/>
        </Node>
        <Node pos="r" depth="1" NCoef="0" IVar="-1" Cut="0.0000000000000000e+00" cType="1" res="-5.7114679366350174e-02" rms="3.3762255311012268e-01" purity="5.5555558204650879e-01" nType="-99"/>
      </Node>
    </BinaryTree>
    <BinaryTree type="DecisionTree" boostWeight="1.0000000000000000e+00" itree="41">
      <Node pos="s" depth="0" NCoef="0" IVar="2" Cut="2.3027689754962921e-01" cType="1" res="-1.5794465434737504e-04" rms="3.0779802799224854e-01" purity="4.9508839845657349e-01" nType="0">
        <Node pos="l" depth="1" NCoef="0" IVar="3" Cut="1.9338318109512329e+00" cType="1" res="-4.7197047621011734e-02" rms="3.0189475417137146e-01" purity="2.8232759237289429e-01" nType="0">
          <Node pos="l" depth="2" NCoef="0" IVar="-1" Cut="0.0000000000000000e+00" cType="1" res="-1.5903810039162636e-02" rms="2.9246622323989868e-01" purity="2.8604120016098022e-01" nType="-99"/>
          <Node pos="r" depth="2" NCoef="0" IVar="-1" Cut="0.0000000000000000e+00" cType="1" res="-7.2127208113670349e-02" rms="3.8130897283554077e-01" purity="2.2222222387790680e-01" nType="-99"/>
        </Node>
        <Node pos="r" depth="1" NCoef="0" IVar="0" Cut="4.7579875946044922e+01" cType="1" res="3.9239425212144852e-02" rms="3.0716240406036377e-01" purity="6.7328518629074097e-01" nType="0">
          <Node pos="l" depth="2" NCoef="0" IVar="-1" Cut="0.0000000000000000e+00" cType="1" res="1.9530551508069038e-02" rms="3.1203001737594604e-01" purity="6.2978720664978027e-01" nType="-99"/>
          <Node pos="r" depth="2" NCoef="0" IVar="-1" Cut="0.0000000000000000e+00" cType="1" res="-1.0788882151246071e-02" rms="2.7235373854637146e-01" purity="9.1666668653488159e-01" nType="-99"/>
        </Node>
      </Node>
    </BinaryTree>
    <BinaryTree type="DecisionTree" boostWeight="1.0000000000000000e+00" itree="42">
      <Node pos="s" depth="0" NCoef="0" IVar="1" Cut="-1.5845375061035156e+00" cType="1" res="-2.6846030727028847e-02" rms="2.9753345251083374e-01" purity="4.8523622751235962e-01" nType="0">
        <Node pos="l" depth="1" NCoef="0" IVar="2" Cut="7.9624342918395996e-01" cType="1" res="-9.0677000582218170e-02" rms="3.6439785361289978e-01" purity="4.2783504724502563e-01" nType="0">
          <Node pos="l" depth="2" NCoef="0" IVar="-1" Cut="0.0000000000000000e+00" cType="1" res="-5.0882559269666672e-02" rms="3.5152372717857361e-01" purity="3.7837839126586914e-01" nType="-99"/>
          <Node pos="r" depth="2" NCoef="0" IVar="-1" Cut="0.0000000000000000e+00" cType="1" res="1.5297761186957359e-02" rms="3.7107589840888977e-01" purity="5.8695650100708008e-01" nType="-99"/>
        </Node>
        <Node pos="r" depth="1" NCoef="0" IVar="0" Cut="1.9359584808349609e+01" cType="1" res="-1.1781300418078899e-02" rms="2.7729392051696777e-01" purity="4.9878346920013428e-01" nType="0">
          <Node pos="l" depth="2" NCoef="0" IVar="-1" Cut="0.0000000000000000e+00" cType="1" res="-2.3175578564405441e-02" rms="2.5264948606491089e-01" purity="9.8360657691955566e-02" nType="-99"/>
          <Node pos="r" depth="2" NCoef="0" IVar="-1" Cut="0.0000000000000000e+00" cType="1" res="7.5898882932960987e-03" rms="2.9205641150474548e-01" purity="8.2017540931701660e-01" nType="-99"/>
        </Node>
      </Node>
    </BinaryTree>
    <BinaryTree type="DecisionTree" boostWeight="1.0000000000000000e+00" itree="43">
      <Node pos="s" depth="0" NCoef="0" IVar="3" Cut="9.7397994995117188e-01" cType="1" res="-4.1896556504070759e-03" rms="3.0592182278633118e-01" purity="4.7304171323776245e-01" nType="0">
        <Node pos="l" depth="1" NCoef="0" IVar="0" Cut="2.0244337081909180e+01" cType="1" res="-5.3254798054695129e-02" rms="2.9363802075386047e-01" purity="1.7678099870681763e-01" nType="0">
          <Node pos="l" depth="2" NCoef="0" IVar="-1" Cut="0.0000000000000000e+00" cType="1" res="-1.0128633119165897e-02" rms="2.3778556287288666e-01" purity="8.5714288055896759e-02" nType="-99"/>
          <Node pos="r" depth="2" NCoef="0" IVar="-1" Cut="0.0000000000000000e+00" cType="1" res="-4.2866073548793793e-02" rms="3.9456117153167725e-01" purity="4.3434342741966248e-01" nType="-99"/>
        </Node>
        <Node pos="r" depth="1" NCoef="0" IVar="3" Cut="5.5050234794616699e+00" cType="1" res="2.6597909629344940e-02" rms="3.0943661928176880e-01" purity="6.5894037485122681e-01" nType="0">
          <Node pos="l" depth="2" NCoef="0" IVar="-1" Cut="0.0000000000000000e+00" cType="1" res="1.9304078072309494e-02" rms="3.0428645014762878e-01" purity="6.7238092422485352e-01" nType="-99"/>
          <Node pos="r" depth="2" NCoef="0" IVar="-1" Cut="0.0000000000000000e+00" cType="1" res="-4.7332458198070526e-02" rms="3.1538772583007812e-01" purity="5.6962025165557861e-01" nType="-99"/>
        </Node>
      </Node>
    </BinaryTree>
    <BinaryTree type="DecisionTree" boostWeight="1.0000000000000000e+00" itree="44">
      <Node pos="s" depth="0" NCoef="0" IVar="0" Cut="3.3691028594970703e+01" cType="1" res="-2.6501214597374201e-03" rms="2.9976409673690796e-01" purity="5.0196462869644165e-01" nType="0">
        <Node pos="l" depth="1" NCoef="0" IVar="3" Cut="1.9252809286117554e+00" cType="1" res="-1.9448986276984215e-02" rms="3.1753015518188477e-01" purity="3.0535456538200378e-01" nType="0">
          <Node pos="l" depth="2" NCoef="0" IVar="-1" Cut="0.0000000000000000e+00" cType="1" res="-1.7011248273774981e-03" rms="3.1276327371597290e-01" purity="3.0514705181121826e-01" nType="-99"/>
          <Node pos="r" depth="2" NCoef="0" IVar="-1" Cut="0.0000000000000000e+00" cType="1" res="-2.6671033352613449e-02" rms="3.2861056923866272e-01" purity="3.0612245202064514e-01" nType="-99"/>
        </Node>
        <Node pos="r" depth="1" NCoef="0" IVar="1" Cut="8.3498072624206543e-01" cType="1" res="3.2848395407199860e-02" rms="2.5461214780807495e-01" purity="9.1743117570877075e-01" nType="0">
          <Node pos="l" depth="2" NCoef="0" IVar="-1" Cut="0.0000000000000000e+00" cType="1" res="2.7723526582121849e-02" rms="2.3441304266452789e-01" purity="9.3534481525421143e-01" nType="-99"/>
          <Node pos="r" depth="2" NCoef="0" IVar="-1" Cut="0.0000000000000000e+00" cType="1" res="-8.1642698496580124e-03" rms="2.9278129339218140e-01" purity="8.7368422746658325e-01" nType="-99"/>
        </Node>
      </Node>
    </BinaryTree>
    <BinaryTree type="DecisionTree" boostWeight="1.0000000000000000e+00" itree="45">
      <Node pos="s" depth="0" NCoef="0" IVar="2" Cut="2.3068070411682129e-01" cType="1" res="2.4595879018306732e-02" rms="2.8836980462074280e-01" purity="5.2199411392211914e-01" nType="0">
        <Node pos="l" depth="1" NCoef="0" IVar="3" Cut="9.7397994995117188e-01" cType="1" res="-7.6993121765553951e-03" rms="2.8115493059158325e-01" purity="3.1473213434219360e-01" nType="0">
          <Node pos="l" depth="2" NCoef="0" IVar="-1" Cut="0.0000000000000000e+00" cType="1" res="-2.5085281580686569e-02" rms="2.2484026849269867e-01" purity="9.0551182627677917e-02" nType="-99"/>
          <Node pos="r" depth="2" NCoef="0" IVar="-1" Cut="0.0000000000000000e+00" cType="1" res="1.3325393199920654e-02" rms="3.3530840277671814e-01" purity="6.0824739933013916e-01" nType="-99"/>
        </Node>
        <Node pos="r" depth="1" NCoef="0" IVar="2" Cut="5.5655193328857422e-01" cType="1" res="4.9758046865463257e-02" rms="2.9139813780784607e-01" purity="6.8347823619842529e-01" nType="0">
          <Node pos="l" depth="2" NCoef="0" IVar="-1" Cut="0.0000000000000000e+00" cType="1" res="3.7621654570102692e-02" rms="2.8873383998870850e-01" purity="7.7391302585601807e-01" nType="-99"/>
          <Node pos="r" depth="2" NCoef="0" IVar="-1" Cut="0.0000000000000000e+00" cType="1" res="1.0225637815892696e-02" rms="2.9054215550422668e-01" purity="6.2318837642669678e-01" nType="-99"/>
        </Node>
      </Node>
    </BinaryTree>
    <BinaryTree type="DecisionTree" boostWeight="1.0000000000000000e+00" itree="46">
      <Node pos="s" depth="0" NCoef="0" IVar="3" Cut="1.2392725944519043e+01" cType="1" res="-2.3557124659419060e-02" rms="3.1302163004875183e-01" purity="4.7081339359283447e-01" nType="0">
        <Node pos="l" depth="1" NCoef="0" IVar="2" Cut="7.8420883417129517e-01" cType="1" res="-1.8214073032140732e-02" rms="3.0979526042938232e-01" purity="4.7082096338272095e-01" nType="0">
          <Node pos="l" depth="2" NCoef="0" IVar="-1" Cut="0.0000000000000000e+00" cType="1" res="-1.3978207483887672e-02" rms="3.0021461844444275e-01" purity="4.2431464791297913e-01" nType="-99"/>
          <Node pos="r" depth="2" NCoef="0" IVar="-1" Cut="0.0000000000000000e+00" cType="1" res="1.9104685634374619e-02" rms="3.4591197967529297e-01" purity="6.9767439365386963e-01" nType="-99"/>
        </Node>
        <Node pos="r" depth="1" NCoef="0" IVar="-1" Cut="0.0000000000000000e+00" cType="1" res="-6.8130269646644592e-02" rms="3.6282581090927124e-01" purity="4.7058823704719543e-01" nType="-99"/>
      </Node>
    </BinaryTree>
    <BinaryTree type="DecisionTree" boostWeight="1.0000000000000000e+00" itree="47">
      <Node pos="s" depth="0" NCoef="0" IVar="2" Cut="2.3068070411682129e-01" cType="1" res="-6.8454369902610779e-03" rms="3.0030190944671631e-01" purity="4.9513620138168335e-01" nType="0">
        <Node pos="l" depth="1" NCoef="0" IVar="3" Cut="9.8298084735870361e-01" cType="1" res="-3.8969140499830246e-02" rms="2.8384530544281006e-01" purity="2.6728111505508423e-01" nType="0">
          <Node pos="l" depth="2" NCoef="0" IVar="-1" Cut="0.0000000000000000e+00" cType="1" res="-4.1522070765495300e-02" rms="1.9226218760013580e-01" purity="6.6147856414318085e-02" nType="-99"/>
          <Node pos="r" depth="2" NCoef="0" IVar="-1" Cut="0.0000000000000000e+00" cType="1" res="3.9238967001438141e-03" rms="3.7365466356277466e-01" purity="5.5932205915451050e-01" nType="-99"/>
        </Node>
        <Node pos="r" depth="1" NCoef="0" IVar="2" Cut="9.1594749689102173e-01" cType="1" res="1.6625417396426201e-02" rms="3.0967739224433899e-01" purity="6.6161614656448364e-01" nType="0">
          <Node pos="l" depth="2" NCoef="0" IVar="-1" Cut="0.0000000000000000e+00" cType="1" res="1.1717336252331734e-02" rms="3.0624684691429138e-01" purity="6.7415732145309448e-01" nType="-99"/>
          <Node pos="r" depth="2" NCoef="0" IVar="-1" Cut="0.0000000000000000e+00" cType="1" res="-3.0828561633825302e-02" rms="3.2459834218025208e-01" purity="5.5000001192092896e-01" nType="-99"/>
        </Node>
      </Node>
    </BinaryTree>
    <BinaryTree type="DecisionTree" boostWeight="1.0000000000000000e+00" itree="48">
      <Node pos="s" depth="0" NCoef="0" IVar="1" Cut="-2.3168880939483643e+00" cType="1" res="-1.0590578895062208e-03" rms="3.0104655027389526e-01" purity="5.1094889640808105e-01" nType="0">
        <Node pos="l" depth="1" NCoef="0" IVar="-1" Cut="0.0000000000000000e+00" cType="1" res="4.4089920818805695e-02" rms="3.9459499716758728e-01" purity="5.6756758689880371e-01" nType="-99"/>
        <Node pos="r" depth="1" NCoef="0" IVar="2" Cut="2.2389499843120575e-01" cType="1" res="-6.0733538120985031e-03" rms="2.9557710886001587e-01" purity="5.0867676734924316e-01" nType="0">
          <Node pos="l" depth="2" NCoef="0" IVar="-1" Cut="0.0000000000000000e+00" cType="1" res="-1.6744416207075119e-02" rms="2.6679763197898865e-01" purity="2.6478150486946106e-01" nType="-99"/>
          <Node pos="r" depth="2" NCoef="0" IVar="-1" Cut="0.0000000000000000e+00" cType="1" res="6.7296740598976612e-03" rms="3.1318989396095276e-01" purity="6.8667918443679810e-01" nType="-99"/>
        </Node>
      </Node>
    </BinaryTree>
    <BinaryTree type="DecisionTree" boostWeight="1.0000000000000000e+00" itree="49">
      <Node pos="s" depth="0" NCoef="0" IVar="1" Cut="-1.5779448747634888e+00" cType="1" res="1.1578062549233437e-02" rms="3.1310763955116272e-01" purity="4.9601593613624573e-01" nType="0">
        <Node pos="l" depth="1" NCoef="0" IVar="1" Cut="-2.0485117435455322e+00" cType="1" res="-5.0176158547401428e-02" rms="3.5266694426536560e-01" purity="4.0298506617546082e-01" nType="0">
          <Node pos="l" depth="2" NCoef="0" IVar="-1" Cut="0.0000000000000000e+00" cType="1" res="2.2333688102662563e-03" rms="3.5238108038902283e-01" purity="4.1304346919059753e-01" nType="-99"/>
          <Node pos="r" depth="2" NCoef="0" IVar="-1" Cut="0.0000000000000000e+00" cType="1" res="-3.5703010857105255e-02" rms="3.4599930047988892e-01" purity="3.9449542760848999e-01" nType="-99"/>
        </Node>
        <Node pos="r" depth="1" NCoef="0" IVar="1" Cut="7.9940009117126465e-01" cType="1" res="2.7035843580961227e-02" rms="3.0041685700416565e-01" purity="5.1930260658264160e-01" nType="0">
          <Node pos="l" depth="2" NCoef="0" IVar="-1" Cut="0.0000000000000000e+00" cType="1" res="2.7865374460816383e-02" rms="2.9241141676902771e-01" purity="5.8850574493408203e-01" nType="-99"/>
          <Node pos="r" depth="2" NCoef="0" IVar="-1" Cut="0.0000000000000000e+00" cType="1" res="-5.8855731040239334e-03" rms="3.0486607551574707e-01" purity="4.3750000000000000e-01" nType="-99"/>
        </Node>
      </Node>
    </BinaryTree>
    <BinaryTree type="DecisionTree" boostWeight="1.0000000000000000e+00" itree="50">
      <Node pos="s" depth="0" NCoef="0" IVar="3" Cut="1.7146097183227539e+01" cType="1" res="-1.0319200810045004e-03" rms="2.8697133064270020e-01" purity="4.9615383148193359e-01" nType="0">
        <Node pos="l" depth="1" NCoef="0" IVar="3" Cut="8.0524235963821411e-01" cType="1" res="3.1122767832130194e-03" rms="2.8360554575920105e-01" purity="4.9605521559715271e-01" nType="0">
          <Node pos="l" depth="2" NCoef="0" IVar="-1" Cut="0.0000000000000000e+00" cType="1" res="-3.2209604978561401e-02" rms="2.0656670629978180e-01" purity="1.1111111193895340e-01" nType="-99"/>
          <Node pos="r" depth="2" NCoef="0" IVar="-1" Cut="0.0000000000000000e+00" cType="1" res="1.2226460501551628e-02" rms="3.0748274922370911e-01" purity="6.6242939233779907e-01" nType="-99"/>
        </Node>
        <Node pos="r" depth="1" NCoef="0" IVar="-1" Cut="0.0000000000000000e+00" cType="1" res="-6.1056565493345261e-02" rms="3.6118870973587036e-01" purity="5.0000000000000000e-01" nType="-99"/>
      </Node>
    </BinaryTree>
    <BinaryTree type="DecisionTree" boostWeight="1.0000000000000000e+00" itree="51">
      <Node pos="s" depth="0" NCoef="0" IVar="1" Cut="-1.0916754007339478e+00" cType="1" res="-4.0274381171911955e-04" rms="2.8002175688743591e-01" purity="4.9212598800659180e-01" nType="0">
        <Node pos="l" depth="1" NCoef="0" IVar="0" Cut="2.9402128219604492e+01" cType="1" res="-4.5121740549802780e-02" rms="3.0515065789222717e-01" purity="4.2750930786132812e-01" nType="0">
          <Node pos="l" depth="2" NCoef="0" IVar="-1" Cut="0.0000000000000000e+00" cType="1" res="-2.9935110360383987e-02" rms="3.0841574072837830e-01" purity="2.0441989600658417e-01" nType="-99"/>
          <Node pos="r" depth="2" NCoef="0" IVar="-1" Cut="0.0000000000000000e+00" cType="1" res="1.1528548784554005e-02" rms="2.8632783889770508e-01" purity="8.8636362552642822e-01" nType="-99"/>
        </Node>
        <Node pos="r" depth="1" NCoef="0" IVar="2" Cut="6.1000210046768188e-01" cType="1" res="1.5700884163379669e-02" rms="2.6858410239219666e-01" purity="5.1539492607116699e-01" nType="0">
          <Node pos="l" depth="2" NCoef="0" IVar="-1" Cut="0.0000000000000000e+00" cType="1" res="1.6683122143149376e-02" rms="2.6058593392372131e-01" purity="4.7868216037750244e-01" nType="-99"/>
          <Node pos="r" depth="2" NCoef="0" IVar="-1" Cut="0.0000000000000000e+00" cType="1" res="-1.0529885068535805e-02" rms="2.8154695034027100e-01" purity="5.9740257263183594e-01" nType="-99"/>
        </Node>
      </Node>
    </BinaryTree>
    <BinaryTree type="DecisionTree" boostWeight="1.0000000000000000e+00" itree="52">
      <Node pos="s" depth="0" NCoef="0" IVar="2" Cut="1.3601295650005341e-01" cType="1" res="1.1421930044889450e-02" rms="3.0222338438034058e-01" purity="5.0596421957015991e-01" nType="0">
        <Node pos="l" depth="1" NCoef="0" IVar="3" Cut="9.0503841638565063e-01" cType="1" res="-1.8589340150356293e-02" rms="2.5827023386955261e-01" purity="2.5000000000000000e-01" nType="0">
          <Node pos="l" depth="2" NCoef="0" IVar="-1" Cut="0.0000000000000000e+00" cType="1" res="-5.7809144258499146e-02" rms="1.1076965928077698e-01" purity="9.6153849735856056e-03" nType="-99"/>
          <Node pos="r" depth="2" NCoef="0" IVar="-1" Cut="0.0000000000000000e+00" cType="1" res="1.9294966012239456e-02" rms="3.5525125265121460e-01" purity="5.6250000000000000e-01" nType="-99"/>
        </Node>
        <Node pos="r" depth="1" NCoef="0" IVar="1" Cut="-1.5866506099700928e+00" cType="1" res="2.8732506558299065e-02" rms="3.2361954450607300e-01" purity="6.5360504388809204e-01" nType="0">
          <Node pos="l" depth="2" NCoef="0" IVar="-1" Cut="0.0000000000000000e+00" cType="1" res="2.7553945779800415e-02" rms="3.3132964372634888e-01" purity="6.7857140302658081e-01" nType="-99"/>
          <Node pos="r" depth="2" NCoef="0" IVar="-1" Cut="0.0000000000000000e+00" cType="1" res="7.1670762263238430e-03" rms="3.2019653916358948e-01" purity="6.4658635854721069e-01" nType="-99"/>
        </Node>
      </Node>
    </BinaryTree>
    <BinaryTree type="DecisionTree" boostWeight="1.0000000000000000e+00" itree="53">
      <Node pos="s" depth="0" NCoef="0" IVar="1" Cut="-1.1019377708435059e+00" cType="1" res="-6.6875685006380081e-03" rms="3.0359646677970886e-01" purity="4.7352340817451477e-01" nType="0">
        <Node pos="l" depth="1" NCoef="0" IVar="2" Cut="8.2329267263412476e-01" cType="1" res="-7.8365549445152283e-02" rms="3.1779044866561890e-01" purity="4.0449437499046326e-01" nType="0">
          <Node pos="l" depth="2" NCoef="0" IVar="-1" Cut="0.0000000000000000e+00" cType="1" res="-4.6305041760206223e-02" rms="3.0969372391700745e-01" purity="3.2558140158653259e-01" nType="-99"/>
          <Node pos="r" depth="2" NCoef="0" IVar="-1" Cut="0.0000000000000000e+00" cType="1" res="1.4207291416823864e-02" rms="3.2455599308013916e-01" purity="7.3076921701431274e-01" nType="-99"/>
        </Node>
        <Node pos="r" depth="1" NCoef="0" IVar="1" Cut="2.0146391391754150e+00" cType="1" res="2.0078895613551140e-02" rms="2.9367020726203918e-01" purity="4.9930068850517273e-01" nType="0">
          <Node pos="l" depth="2" NCoef="0" IVar="-1" Cut="0.0000000000000000e+00" cType="1" res="1.6938114538788795e-02" rms="2.9601925611495972e-01" purity="5.4424041509628296e-01" nType="-99"/>
          <Node pos="r" depth="2" NCoef="0" IVar="-1" Cut="0.0000000000000000e+00" cType="1" res="-3.0814589932560921e-02" rms="2.6600196957588196e-01" purity="2.6724138855934143e-01" nType="-99"/>
        </Node>
      </Node>
    </BinaryTree>
    <BinaryTree type="DecisionTree" boostWeight="1.0000000000000000e+00" itree="54">
      <Node pos="s" depth="0" NCoef="0" IVar="0" Cut="2.6293252944946289e+01" cType="1" res="-9.0314503759145737e-03" rms="2.9742714762687683e-01" purity="4.9595141410827637e-01" nType="0">
        <Node pos="l" depth="1" NCoef="0" IVar="3" Cut="1.9252809286117554e+00" cType="1" res="-3.1069641932845116e-02" rms="3.1554785370826721e-01" purity="2.0000000298023224e-01" nType="0">
          <Node pos="l" depth="2" NCoef="0" IVar="-1" Cut="0.0000000000000000e+00" cType="1" res="-5.3762025199830532e-03" rms="3.0806916952133179e-01" purity="1.9578947126865387e-01" nType="-99"/>
          <Node pos="r" depth="2" NCoef="0" IVar="-1" Cut="0.0000000000000000e+00" cType="1" res="-4.3163936585187912e-02" rms="3.3483535051345825e-01" purity="2.2222222387790680e-01" nType="-99"/>
        </Node>
        <Node pos="r" depth="1" NCoef="0" IVar="1" Cut="-5.9109491109848022e-01" cType="1" res="2.0404903218150139e-02" rms="2.6853561401367188e-01" purity="8.9125293493270874e-01" nType="0">
          <Node pos="l" depth="2" NCoef="0" IVar="-1" Cut="0.0000000000000000e+00" cType="1" res="-6.2991003505885601e-03" rms="2.9466927051544189e-01" purity="8.5635358095169067e-01" nType="-99"/>
          <Node pos="r" depth="2" NCoef="0" IVar="-1" Cut="0.0000000000000000e+00" cType="1" res="2.3544758558273315e-02" rms="2.4441370368003845e-01" purity="9.1735535860061646e-01" nType="-99"/>
        </Node>
      </Node>
    </BinaryTree>
    <BinaryTree type="DecisionTree" boostWeight="1.0000000000000000e+00" itree="55">
      <Node pos="s" depth="0" NCoef="0" IVar="2" Cut="2.3314115405082703e-01" cType="1" res="1.6716629266738892e-02" rms="2.9163455963134766e-01" purity="5.2399998903274536e-01" nType="0">
        <Node pos="l" depth="1" NCoef="0" IVar="3" Cut="1.5013945102691650e+00" cType="1" res="-1.3889787718653679e-02" rms="2.9024446010589600e-01" purity="3.0133929848670959e-01" nType="0">
          <Node pos="l" depth="2" NCoef="0" IVar="-1" Cut="0.0000000000000000e+00" cType="1" res="5.7910163886845112e-03" rms="2.6788613200187683e-01" purity="3.1094527244567871e-01" nType="-99"/>
          <Node pos="r" depth="2" NCoef="0" IVar="-1" Cut="0.0000000000000000e+00" cType="1" res="-7.7253900468349457e-02" rms="3.7112456560134888e-01" purity="2.1739129722118378e-01" nType="-99"/>
        </Node>
        <Node pos="r" depth="1" NCoef="0" IVar="2" Cut="4.8651993274688721e-01" cType="1" res="4.1556622833013535e-02" rms="2.9039609432220459e-01" purity="7.0471012592315674e-01" nType="0">
          <Node pos="l" depth="2" NCoef="0" IVar="-1" Cut="0.0000000000000000e+00" cType="1" res="3.6105521023273468e-02" rms="2.5460574030876160e-01" purity="7.9679143428802490e-01" nType="-99"/>
          <Node pos="r" depth="2" NCoef="0" IVar="-1" Cut="0.0000000000000000e+00" cType="1" res="9.7099859267473221e-03" rms="3.0541998147964478e-01" purity="6.5753424167633057e-01" nType="-99"/>
        </Node>
      </Node>
    </BinaryTree>
    <BinaryTree type="DecisionTree" boostWeight="1.0000000000000000e+00" itree="56">
      <Node pos="s" depth="0" NCoef="0" IVar="3" Cut="9.9792265892028809e-01" cType="1" res="9.6251809736713767e-04" rms="2.8617107868194580e-01" purity="5.0417536497116089e-01" nType="0">
        <Node pos="l" depth="1" NCoef="0" IVar="2" Cut="8.0228322744369507e-01" cType="1" res="-3.7871461361646652e-02" rms="2.7419450879096985e-01" purity="2.0454545319080353e-01" nType="0">
          <Node pos="l" depth="2" NCoef="0" IVar="-1" Cut="0.0000000000000000e+00" cType="1" res="-3.1131660565733910e-02" rms="2.6557657122612000e-01" purity="1.3832853734493256e-01" nType="-99"/>
          <Node pos="r" depth="2" NCoef="0" IVar="-1" Cut="0.0000000000000000e+00" cType="1" res="3.9009928703308105e-02" rms="2.8710940480232239e-01" purity="6.7346936464309692e-01" nType="-99"/>
        </Node>
        <Node pos="r" depth="1" NCoef="0" IVar="1" Cut="-1.3362330198287964e+00" cType="1" res="2.8325961902737617e-02" rms="2.9122400283813477e-01" purity="7.1530246734619141e-01" nType="0">
          <Node pos="l" depth="2" NCoef="0" IVar="-1" Cut="0.0000000000000000e+00" cType="1" res="-3.7745537701994181e-03" rms="3.5428354144096375e-01" purity="5.9602648019790649e-01" nType="-99"/>
          <Node pos="r" depth="2" NCoef="0" IVar="-1" Cut="0.0000000000000000e+00" cType="1" res="2.0750943571329117e-02" rms="2.6290917396545410e-01" purity="7.5912410020828247e-01" nType="-99"/>
        </Node>
      </Node>
    </BinaryTree>
    <BinaryTree type="DecisionTree" boostWeight="1.0000000000000000e+00" itree="57">
      <Node pos="s" depth="0" NCoef="0" IVar="3" Cut="9.5356893539428711e+00" cType="1" res="7.6406258158385754e-03" rms="2.8881204128265381e-01" purity="5.0275230407714844e-01" nType="0">
        <Node pos="l" depth="1" NCoef="0" IVar="3" Cut="8.8019305467605591e-01" cType="1" res="1.3472268357872963e-02" rms="2.8443944454193115e-01" purity="5.0669217109680176e-01" nType="0">
          <Node pos="l" depth="2" NCoef="0" IVar="-1" Cut="0.0000000000000000e+00" cType="1" res="-2.9452562332153320e-02" rms="2.0499595999717712e-01" purity="1.2215909361839294e-01" nType="-99"/>
          <Node pos="r" depth="2" NCoef="0" IVar="-1" Cut="0.0000000000000000e+00" cType="1" res="1.9446978345513344e-02" rms="3.1254190206527710e-01" purity="7.0172911882400513e-01" nType="-99"/>
        </Node>
        <Node pos="r" depth="1" NCoef="0" IVar="-1" Cut="0.0000000000000000e+00" cType="1" res="-5.0753604620695114e-02" rms="3.5067537426948547e-01" purity="4.0909090638160706e-01" nType="-99"/>
      </Node>
    </BinaryTree>
    <BinaryTree type="DecisionTree" boostWeight="1.0000000000000000e+00" itree="58">
      <Node pos="s" depth="0" NCoef="0" IVar="1" Cut="-2.0662682056427002e+00" cType="1" res="-7.3672872968018055e-03" rms="2.8951293230056763e-01" purity="4.8500001430511475e-01" nType="0">
        <Node pos="l" depth="1" NCoef="0" IVar="1" Cut="-2.2320470809936523e+00" cType="1" res="-8.8411964476108551e-02" rms="3.0763360857963562e-01" purity="3.2558140158653259e-01" nType="0">
          <Node pos="l" depth="2" NCoef="0" IVar="-1" Cut="0.0000000000000000e+00" cType="1" res="-5.4116461426019669e-02" rms="3.4498795866966248e-01" purity="3.2692307233810425e-01" nType="-99"/>
          <Node pos="r" depth="2" NCoef="0" IVar="-1" Cut="0.0000000000000000e+00" cType="1" res="-8.8011436164379120e-03" rms="2.2196857631206512e-01" purity="3.2352942228317261e-01" nType="-99"/>
        </Node>
        <Node pos="r" depth="1" NCoef="0" IVar="3" Cut="9.9792265892028809e-01" cType="1" res="2.5836081476882100e-04" rms="2.8657186031341553e-01" purity="5.0000000000000000e-01" nType="0">
          <Node pos="l" depth="2" NCoef="0" IVar="-1" Cut="0.0000000000000000e+00" cType="1" res="-9.9104549735784531e-03" rms="2.7974829077720642e-01" purity="2.2278481721878052e-01" nType="-99"/>
          <Node pos="r" depth="2" NCoef="0" IVar="-1" Cut="0.0000000000000000e+00" cType="1" res="7.3992153629660606e-03" rms="2.9068985581398010e-01" purity="7.1098268032073975e-01" nType="-99"/>
        </Node>
      </Node>
    </BinaryTree>
    <BinaryTree type="DecisionTree" boostWeight="1.0000000000000000e+00" itree="59">
      <Node pos="s" depth="0" NCoef="0" IVar="3" Cut="1.0490907669067383e+01" cType="1" res="4.3422672897577286e-03" rms="3.0938300490379333e-01" purity="5.0495940446853638e-01" nType="0">
        <Node pos="l" depth="1" NCoef="0" IVar="3" Cut="1.4870998859405518e+00" cType="1" res="-6.1896833358332515e-04" rms="3.0131235718727112e-01" purity="4.9719625711441040e-01" nType="0">
          <Node pos="l" depth="2" NCoef="0" IVar="-1" Cut="0.0000000000000000e+00" cType="1" res="7.5712902471423149e-03" rms="2.9611104726791382e-01" purity="4.4010415673255920e-01" nType="-99"/>
          <Node pos="r" depth="2" NCoef="0" IVar="-1" Cut="0.0000000000000000e+00" cType="1" res="-2.1773505955934525e-02" rms="3.0995041131973267e-01" purity="6.4238411188125610e-01" nType="-99"/>
        </Node>
        <Node pos="r" depth="1" NCoef="0" IVar="-1" Cut="0.0000000000000000e+00" cType="1" res="5.0264190882444382e-02" rms="4.6015071868896484e-01" purity="7.1794873476028442e-01" nType="-99"/>
      </Node>
    </BinaryTree>
    <BinaryTree type="DecisionTree" boostWeight="1.0000000000000000e+00" itree="60">
      <Node pos="s" depth="0" NCoef="0" IVar="2" Cut="7.9941409826278687e-01" cType="1" res="-5.5647459812462330e-03" rms="3.0264747142791748e-01" purity="5.0000000000000000e-01" nType="0">
        <Node pos="l" depth="1" NCoef="0" IVar="1" Cut="1.3328013420104980e+00" cType="1" res="-1.7584420740604401e-02" rms="3.0092963576316833e-01" purity="4.5521470904350281e-01" nType="0">
          <Node pos="l" depth="2" NCoef="0" IVar="-1" Cut="0.0000000000000000e+00" cType="1" res="-3.9501304854638875e-04" rms="2.9375648498535156e-01" purity="4.9837663769721985e-01" nType="-99"/>
          <Node pos="r" depth="2" NCoef="0" IVar="-1" Cut="0.0000000000000000e+00" cType="1" res="-3.1948536634445190e-02" rms="3.1654998660087585e-01" purity="3.2160803675651550e-01" nType="-99"/>
        </Node>
        <Node pos="r" depth="1" NCoef="0" IVar="3" Cut="1.0484091043472290e+00" cType="1" res="4.9161702394485474e-02" rms="3.0440697073936462e-01" purity="7.0391058921813965e-01" nType="0">
          <Node pos="l" depth="2" NCoef="0" IVar="-1" Cut="0.0000000000000000e+00" cType="1" res="4.7824352979660034e-02" rms="3.3572658896446228e-01" purity="7.3584908246994019e-01" nType="-99"/>
          <Node pos="r" depth="2" NCoef="0" IVar="-1" Cut="0.0000000000000000e+00" cType="1" res="3.5339305177330971e-03" rms="2.7968084812164307e-01" purity="6.9047617912292480e-01" nType="-99"/>
        </Node>
      </Node>
    </BinaryTree>
    <BinaryTree type="DecisionTree" boostWeight="1.0000000000000000e+00" itree="61">
      <Node pos="s" depth="0" NCoef="0" IVar="2" Cut="2.3117806017398834e-01" cType="1" res="-2.7885673567652702e-02" rms="3.0915978550910950e-01" purity="4.9799197912216187e-01" nType="0">
        <Node pos="l" depth="1" NCoef="0" IVar="0" Cut="4.6815876007080078e+01" cType="1" res="-6.2790311872959137e-02" rms="2.7669748663902283e-01" purity="2.5419664382934570e-01" nType="0">
          <Node pos="l" depth="2" NCoef="0" IVar="-1" Cut="0.0000000000000000e+00" cType="1" res="-2.5532394647598267e-02" rms="2.6434415578842163e-01" purity="2.2513088583946228e-01" nType="-99"/>
          <Node pos="r" depth="2" NCoef="0" IVar="-1" Cut="0.0000000000000000e+00" cType="1" res="-7.2378009557723999e-02" rms="3.6092332005500793e-01" purity="5.7142859697341919e-01" nType="-99"/>
        </Node>
        <Node pos="r" depth="1" NCoef="0" IVar="1" Cut="1.2208191305398941e-01" cType="1" res="-2.7470972854644060e-03" rms="3.2827958464622498e-01" purity="6.7357510328292847e-01" nType="0">
          <Node pos="l" depth="2" NCoef="0" IVar="-1" Cut="0.0000000000000000e+00" cType="1" res="-1.1053834110498428e-02" rms="3.4718549251556396e-01" purity="6.6666668653488159e-01" nType="-99"/>
          <Node pos="r" depth="2" NCoef="0" IVar="-1" Cut="0.0000000000000000e+00" cType="1" res="1.0057846084237099e-02" rms="3.0467626452445984e-01" purity="6.8100357055664062e-01" nType="-99"/>
        </Node>
      </Node>
    </BinaryTree>
    <BinaryTree type="DecisionTree" boostWeight="1.0000000000000000e+00" itree="62">
      <Node pos="s" depth="0" NCoef="0" IVar="2" Cut="3.2588407397270203e-01" cType="1" res="-4.7457655891776085e-03" rms="3.0488470196723938e-01" purity="4.8502993583679199e-01" nType="0">
        <Node pos="l" depth="1" NCoef="0" IVar="3" Cut="1.7395124435424805e+00" cType="1" res="-2.4106543511152267e-02" rms="2.5685957074165344e-01" purity="3.2914045453071594e-01" nType="0">
          <Node pos="l" depth="2" NCoef="0" IVar="-1" Cut="0.0000000000000000e+00" cType="1" res="-6.9047762081027031e-03" rms="2.3383671045303345e-01" purity="3.2265445590019226e-01" nType="-99"/>
          <Node pos="r" depth="2" NCoef="0" IVar="-1" Cut="0.0000000000000000e+00" cType="1" res="-4.8008512705564499e-02" rms="4.1516822576522827e-01" purity="4.0000000596046448e-01" nType="-99"/>
        </Node>
        <Node pos="r" depth="1" NCoef="0" IVar="0" Cut="1.9348510742187500e+01" cType="1" res="1.2844884768128395e-02" rms="3.4178349375724792e-01" purity="6.2666666507720947e-01" nType="0">
          <Node pos="l" depth="2" NCoef="0" IVar="-1" Cut="0.0000000000000000e+00" cType="1" res="1.7127165570855141e-02" rms="3.8653546571731567e-01" purity="2.6540285348892212e-01" nType="-99"/>
          <Node pos="r" depth="2" NCoef="0" IVar="-1" Cut="0.0000000000000000e+00" cType="1" res="-6.0496092773973942e-03" rms="3.0572363734245300e-01" purity="8.6942672729492188e-01" nType="-99"/>
        </Node>
      </Node>
    </BinaryTree>
    <BinaryTree type="DecisionTree" boostWeight="1.0000000000000000e+00" itree="63">
      <Node pos="s" depth="0" NCoef="0" IVar="0" Cut="1.8222114562988281e+01" cType="1" res="1.8227306427434087e-03" rms="2.8298947215080261e-01" purity="4.9745157361030579e-01" nType="0">
        <Node pos="l" depth="1" NCoef="0" IVar="0" Cut="8.7790174484252930e+00" cType="1" res="-2.4921426549553871e-02" rms="2.6259148120880127e-01" purity="1.1086474359035492e-01" nType="0">
          <Node pos="l" depth="2" NCoef="0" IVar="-1" Cut="0.0000000000000000e+00" cType="1" res="-4.7493841499090195e-02" rms="1.1059667915105820e-01" purity="1.1406844481825829e-02" nType="-99"/>
          <Node pos="r" depth="2" NCoef="0" IVar="-1" Cut="0.0000000000000000e+00" cType="1" res="7.3095001280307770e-03" rms="3.8031440973281860e-01" purity="2.5000000000000000e-01" nType="-99"/>
        </Node>
        <Node pos="r" depth="1" NCoef="0" IVar="1" Cut="-8.4725970029830933e-01" cType="1" res="2.4580495432019234e-02" rms="2.9736581444740295e-01" purity="8.2641512155532837e-01" nType="0">
          <Node pos="l" depth="2" NCoef="0" IVar="-1" Cut="0.0000000000000000e+00" cType="1" res="-1.3670015148818493e-02" rms="3.6112317442893982e-01" purity="7.5287353992462158e-01" nType="-99"/>
          <Node pos="r" depth="2" NCoef="0" IVar="-1" Cut="0.0000000000000000e+00" cType="1" res="2.5200305506587029e-02" rms="2.5555142760276794e-01" purity="8.6235952377319336e-01" nType="-99"/>
        </Node>
      </Node>
    </BinaryTree>
    <BinaryTree type="DecisionTree" boostWeight="1.0000000000000000e+00" itree="64">
      <Node pos="s" depth="0" NCoef="0" IVar="0" Cut="3.2536357879638672e+01" cType="1" res="-4.1462918743491173e-03" rms="2.8565397858619690e-01" purity="4.8472505807876587e-01" nType="0">
        <Node pos="l" depth="1" NCoef="0" IVar="2" Cut="5.1529610157012939e-01" cType="1" res="-2.4696724489331245e-02" rms="3.1286919116973877e-01" purity="2.6452597975730896e-01" nType="0">
          <Node pos="l" depth="2" NCoef="0" IVar="-1" Cut="0.0000000000000000e+00" cType="1" res="-1.2926284689456224e-03" rms="2.9237657785415649e-01" purity="2.3004694283008575e-01" nType="-99"/>
          <Node pos="r" depth="2" NCoef="0" IVar="-1" Cut="0.0000000000000000e+00" cType="1" res="-2.1974042057991028e-02" rms="3.4412291646003723e-01" purity="3.2894736528396606e-01" nType="-99"/>
        </Node>
        <Node pos="r" depth="1" NCoef="0" IVar="3" Cut="1.0322835445404053e+00" cType="1" res="3.6829266697168350e-02" rms="2.1586702764034271e-01" purity="9.2378050088882446e-01" nType="0">
